elements: [Be, G] 
E0: [0.000000, 0.000000] 
deltaSplineBins: 0.001000 
embeddings:
  0: {ndensity: 1, FS_parameters: [1.0, 1.0], npoti: FinnisSinclair, rho_core_cutoff: 100000, drho_core_cutoff: 250}
  1: {ndensity: 1, FS_parameters: [1.0, 1.0], npoti: FinnisSinclair, rho_core_cutoff: 100000, drho_core_cutoff: 250}
bonds:
  [0, 0]: {nradmax: 12, lmax: 6, nradbasemax: 12, radbasename: ChebExpCos, radparameters: [0.172], radcoefficients: [[[1, 0, 0, 0, 0, 0, 0, 0, 0, 0, 0, 0], [1, 0, 0, 0, 0, 0, 0, 0, 0, 0, 0, 0], [1, 0, 0, 0, 0, 0, 0, 0, 0, 0, 0, 0], [1, 0, 0, 0, 0, 0, 0, 0, 0, 0, 0, 0], [1, 0, 0, 0, 0, 0, 0, 0, 0, 0, 0, 0], [1, 0, 0, 0, 0, 0, 0, 0, 0, 0, 0, 0], [1, 0, 0, 0, 0, 0, 0, 0, 0, 0, 0, 0]], [[0, 1, 0, 0, 0, 0, 0, 0, 0, 0, 0, 0], [0, 1, 0, 0, 0, 0, 0, 0, 0, 0, 0, 0], [0, 1, 0, 0, 0, 0, 0, 0, 0, 0, 0, 0], [0, 1, 0, 0, 0, 0, 0, 0, 0, 0, 0, 0], [0, 1, 0, 0, 0, 0, 0, 0, 0, 0, 0, 0], [0, 1, 0, 0, 0, 0, 0, 0, 0, 0, 0, 0], [0, 1, 0, 0, 0, 0, 0, 0, 0, 0, 0, 0]], [[0, 0, 1, 0, 0, 0, 0, 0, 0, 0, 0, 0], [0, 0, 1, 0, 0, 0, 0, 0, 0, 0, 0, 0], [0, 0, 1, 0, 0, 0, 0, 0, 0, 0, 0, 0], [0, 0, 1, 0, 0, 0, 0, 0, 0, 0, 0, 0], [0, 0, 1, 0, 0, 0, 0, 0, 0, 0, 0, 0], [0, 0, 1, 0, 0, 0, 0, 0, 0, 0, 0, 0], [0, 0, 1, 0, 0, 0, 0, 0, 0, 0, 0, 0]], [[0, 0, 0, 1, 0, 0, 0, 0, 0, 0, 0, 0], [0, 0, 0, 1, 0, 0, 0, 0, 0, 0, 0, 0], [0, 0, 0, 1, 0, 0, 0, 0, 0, 0, 0, 0], [0, 0, 0, 1, 0, 0, 0, 0, 0, 0, 0, 0], [0, 0, 0, 1, 0, 0, 0, 0, 0, 0, 0, 0], [0, 0, 0, 1, 0, 0, 0, 0, 0, 0, 0, 0], [0, 0, 0, 1, 0, 0, 0, 0, 0, 0, 0, 0]], [[0, 0, 0, 0, 1, 0, 0, 0, 0, 0, 0, 0], [0, 0, 0, 0, 1, 0, 0, 0, 0, 0, 0, 0], [0, 0, 0, 0, 1, 0, 0, 0, 0, 0, 0, 0], [0, 0, 0, 0, 1, 0, 0, 0, 0, 0, 0, 0], [0, 0, 0, 0, 1, 0, 0, 0, 0, 0, 0, 0], [0, 0, 0, 0, 1, 0, 0, 0, 0, 0, 0, 0], [0, 0, 0, 0, 1, 0, 0, 0, 0, 0, 0, 0]], [[0, 0, 0, 0, 0, 1, 0, 0, 0, 0, 0, 0], [0, 0, 0, 0, 0, 1, 0, 0, 0, 0, 0, 0], [0, 0, 0, 0, 0, 1, 0, 0, 0, 0, 0, 0], [0, 0, 0, 0, 0, 1, 0, 0, 0, 0, 0, 0], [0, 0, 0, 0, 0, 1, 0, 0, 0, 0, 0, 0], [0, 0, 0, 0, 0, 1, 0, 0, 0, 0, 0, 0], [0, 0, 0, 0, 0, 1, 0, 0, 0, 0, 0, 0]], [[0, 0, 0, 0, 0, 0, 1, 0, 0, 0, 0, 0], [0, 0, 0, 0, 0, 0, 1, 0, 0, 0, 0, 0], [0, 0, 0, 0, 0, 0, 1, 0, 0, 0, 0, 0], [0, 0, 0, 0, 0, 0, 1, 0, 0, 0, 0, 0], [0, 0, 0, 0, 0, 0, 1, 0, 0, 0, 0, 0], [0, 0, 0, 0, 0, 0, 1, 0, 0, 0, 0, 0], [0, 0, 0, 0, 0, 0, 1, 0, 0, 0, 0, 0]], [[0, 0, 0, 0, 0, 0, 0, 1, 0, 0, 0, 0], [0, 0, 0, 0, 0, 0, 0, 1, 0, 0, 0, 0], [0, 0, 0, 0, 0, 0, 0, 1, 0, 0, 0, 0], [0, 0, 0, 0, 0, 0, 0, 1, 0, 0, 0, 0], [0, 0, 0, 0, 0, 0, 0, 1, 0, 0, 0, 0], [0, 0, 0, 0, 0, 0, 0, 1, 0, 0, 0, 0], [0, 0, 0, 0, 0, 0, 0, 1, 0, 0, 0, 0]], [[0, 0, 0, 0, 0, 0, 0, 0, 1, 0, 0, 0], [0, 0, 0, 0, 0, 0, 0, 0, 1, 0, 0, 0], [0, 0, 0, 0, 0, 0, 0, 0, 1, 0, 0, 0], [0, 0, 0, 0, 0, 0, 0, 0, 1, 0, 0, 0], [0, 0, 0, 0, 0, 0, 0, 0, 1, 0, 0, 0], [0, 0, 0, 0, 0, 0, 0, 0, 1, 0, 0, 0], [0, 0, 0, 0, 0, 0, 0, 0, 1, 0, 0, 0]], [[0, 0, 0, 0, 0, 0, 0, 0, 0, 1, 0, 0], [0, 0, 0, 0, 0, 0, 0, 0, 0, 1, 0, 0], [0, 0, 0, 0, 0, 0, 0, 0, 0, 1, 0, 0], [0, 0, 0, 0, 0, 0, 0, 0, 0, 1, 0, 0], [0, 0, 0, 0, 0, 0, 0, 0, 0, 1, 0, 0], [0, 0, 0, 0, 0, 0, 0, 0, 0, 1, 0, 0], [0, 0, 0, 0, 0, 0, 0, 0, 0, 1, 0, 0]], [[0, 0, 0, 0, 0, 0, 0, 0, 0, 0, 1, 0], [0, 0, 0, 0, 0, 0, 0, 0, 0, 0, 1, 0], [0, 0, 0, 0, 0, 0, 0, 0, 0, 0, 1, 0], [0, 0, 0, 0, 0, 0, 0, 0, 0, 0, 1, 0], [0, 0, 0, 0, 0, 0, 0, 0, 0, 0, 1, 0], [0, 0, 0, 0, 0, 0, 0, 0, 0, 0, 1, 0], [0, 0, 0, 0, 0, 0, 0, 0, 0, 0, 1, 0]], [[0, 0, 0, 0, 0, 0, 0, 0, 0, 0, 0, 1], [0, 0, 0, 0, 0, 0, 0, 0, 0, 0, 0, 1], [0, 0, 0, 0, 0, 0, 0, 0, 0, 0, 0, 1], [0, 0, 0, 0, 0, 0, 0, 0, 0, 0, 0, 1], [0, 0, 0, 0, 0, 0, 0, 0, 0, 0, 0, 1], [0, 0, 0, 0, 0, 0, 0, 0, 0, 0, 0, 1], [0, 0, 0, 0, 0, 0, 0, 0, 0, 0, 0, 1]]], prehc: 0, lambdahc: 0.172, rcut: 3.433, dcut: 0.01, rcut_in: 0.0, dcut_in: 0.0, inner_cutoff_type: distance}
  [0, 1]: {nradmax: 12, lmax: 6, nradbasemax: 12, radbasename: ChebExpCos, radparameters: [0.208], radcoefficients: [[[1, 0, 0, 0, 0, 0, 0, 0, 0, 0, 0, 0], [1, 0, 0, 0, 0, 0, 0, 0, 0, 0, 0, 0], [1, 0, 0, 0, 0, 0, 0, 0, 0, 0, 0, 0], [1, 0, 0, 0, 0, 0, 0, 0, 0, 0, 0, 0], [1, 0, 0, 0, 0, 0, 0, 0, 0, 0, 0, 0], [1, 0, 0, 0, 0, 0, 0, 0, 0, 0, 0, 0], [1, 0, 0, 0, 0, 0, 0, 0, 0, 0, 0, 0]], [[0, 1, 0, 0, 0, 0, 0, 0, 0, 0, 0, 0], [0, 1, 0, 0, 0, 0, 0, 0, 0, 0, 0, 0], [0, 1, 0, 0, 0, 0, 0, 0, 0, 0, 0, 0], [0, 1, 0, 0, 0, 0, 0, 0, 0, 0, 0, 0], [0, 1, 0, 0, 0, 0, 0, 0, 0, 0, 0, 0], [0, 1, 0, 0, 0, 0, 0, 0, 0, 0, 0, 0], [0, 1, 0, 0, 0, 0, 0, 0, 0, 0, 0, 0]], [[0, 0, 1, 0, 0, 0, 0, 0, 0, 0, 0, 0], [0, 0, 1, 0, 0, 0, 0, 0, 0, 0, 0, 0], [0, 0, 1, 0, 0, 0, 0, 0, 0, 0, 0, 0], [0, 0, 1, 0, 0, 0, 0, 0, 0, 0, 0, 0], [0, 0, 1, 0, 0, 0, 0, 0, 0, 0, 0, 0], [0, 0, 1, 0, 0, 0, 0, 0, 0, 0, 0, 0], [0, 0, 1, 0, 0, 0, 0, 0, 0, 0, 0, 0]], [[0, 0, 0, 1, 0, 0, 0, 0, 0, 0, 0, 0], [0, 0, 0, 1, 0, 0, 0, 0, 0, 0, 0, 0], [0, 0, 0, 1, 0, 0, 0, 0, 0, 0, 0, 0], [0, 0, 0, 1, 0, 0, 0, 0, 0, 0, 0, 0], [0, 0, 0, 1, 0, 0, 0, 0, 0, 0, 0, 0], [0, 0, 0, 1, 0, 0, 0, 0, 0, 0, 0, 0], [0, 0, 0, 1, 0, 0, 0, 0, 0, 0, 0, 0]], [[0, 0, 0, 0, 1, 0, 0, 0, 0, 0, 0, 0], [0, 0, 0, 0, 1, 0, 0, 0, 0, 0, 0, 0], [0, 0, 0, 0, 1, 0, 0, 0, 0, 0, 0, 0], [0, 0, 0, 0, 1, 0, 0, 0, 0, 0, 0, 0], [0, 0, 0, 0, 1, 0, 0, 0, 0, 0, 0, 0], [0, 0, 0, 0, 1, 0, 0, 0, 0, 0, 0, 0], [0, 0, 0, 0, 1, 0, 0, 0, 0, 0, 0, 0]], [[0, 0, 0, 0, 0, 1, 0, 0, 0, 0, 0, 0], [0, 0, 0, 0, 0, 1, 0, 0, 0, 0, 0, 0], [0, 0, 0, 0, 0, 1, 0, 0, 0, 0, 0, 0], [0, 0, 0, 0, 0, 1, 0, 0, 0, 0, 0, 0], [0, 0, 0, 0, 0, 1, 0, 0, 0, 0, 0, 0], [0, 0, 0, 0, 0, 1, 0, 0, 0, 0, 0, 0], [0, 0, 0, 0, 0, 1, 0, 0, 0, 0, 0, 0]], [[0, 0, 0, 0, 0, 0, 1, 0, 0, 0, 0, 0], [0, 0, 0, 0, 0, 0, 1, 0, 0, 0, 0, 0], [0, 0, 0, 0, 0, 0, 1, 0, 0, 0, 0, 0], [0, 0, 0, 0, 0, 0, 1, 0, 0, 0, 0, 0], [0, 0, 0, 0, 0, 0, 1, 0, 0, 0, 0, 0], [0, 0, 0, 0, 0, 0, 1, 0, 0, 0, 0, 0], [0, 0, 0, 0, 0, 0, 1, 0, 0, 0, 0, 0]], [[0, 0, 0, 0, 0, 0, 0, 1, 0, 0, 0, 0], [0, 0, 0, 0, 0, 0, 0, 1, 0, 0, 0, 0], [0, 0, 0, 0, 0, 0, 0, 1, 0, 0, 0, 0], [0, 0, 0, 0, 0, 0, 0, 1, 0, 0, 0, 0], [0, 0, 0, 0, 0, 0, 0, 1, 0, 0, 0, 0], [0, 0, 0, 0, 0, 0, 0, 1, 0, 0, 0, 0], [0, 0, 0, 0, 0, 0, 0, 1, 0, 0, 0, 0]], [[0, 0, 0, 0, 0, 0, 0, 0, 1, 0, 0, 0], [0, 0, 0, 0, 0, 0, 0, 0, 1, 0, 0, 0], [0, 0, 0, 0, 0, 0, 0, 0, 1, 0, 0, 0], [0, 0, 0, 0, 0, 0, 0, 0, 1, 0, 0, 0], [0, 0, 0, 0, 0, 0, 0, 0, 1, 0, 0, 0], [0, 0, 0, 0, 0, 0, 0, 0, 1, 0, 0, 0], [0, 0, 0, 0, 0, 0, 0, 0, 1, 0, 0, 0]], [[0, 0, 0, 0, 0, 0, 0, 0, 0, 1, 0, 0], [0, 0, 0, 0, 0, 0, 0, 0, 0, 1, 0, 0], [0, 0, 0, 0, 0, 0, 0, 0, 0, 1, 0, 0], [0, 0, 0, 0, 0, 0, 0, 0, 0, 1, 0, 0], [0, 0, 0, 0, 0, 0, 0, 0, 0, 1, 0, 0], [0, 0, 0, 0, 0, 0, 0, 0, 0, 1, 0, 0], [0, 0, 0, 0, 0, 0, 0, 0, 0, 1, 0, 0]], [[0, 0, 0, 0, 0, 0, 0, 0, 0, 0, 1, 0], [0, 0, 0, 0, 0, 0, 0, 0, 0, 0, 1, 0], [0, 0, 0, 0, 0, 0, 0, 0, 0, 0, 1, 0], [0, 0, 0, 0, 0, 0, 0, 0, 0, 0, 1, 0], [0, 0, 0, 0, 0, 0, 0, 0, 0, 0, 1, 0], [0, 0, 0, 0, 0, 0, 0, 0, 0, 0, 1, 0], [0, 0, 0, 0, 0, 0, 0, 0, 0, 0, 1, 0]], [[0, 0, 0, 0, 0, 0, 0, 0, 0, 0, 0, 1], [0, 0, 0, 0, 0, 0, 0, 0, 0, 0, 0, 1], [0, 0, 0, 0, 0, 0, 0, 0, 0, 0, 0, 1], [0, 0, 0, 0, 0, 0, 0, 0, 0, 0, 0, 1], [0, 0, 0, 0, 0, 0, 0, 0, 0, 0, 0, 1], [0, 0, 0, 0, 0, 0, 0, 0, 0, 0, 0, 1], [0, 0, 0, 0, 0, 0, 0, 0, 0, 0, 0, 1]]], prehc: 0, lambdahc: 0.208, rcut: 4.152, dcut: 0.01, rcut_in: 0.0, dcut_in: 0.0, inner_cutoff_type: distance}
  [1, 0]: {nradmax: 12, lmax: 6, nradbasemax: 12, radbasename: ChebExpCos, radparameters: [0.208], radcoefficients: [[[1, 0, 0, 0, 0, 0, 0, 0, 0, 0, 0, 0], [1, 0, 0, 0, 0, 0, 0, 0, 0, 0, 0, 0], [1, 0, 0, 0, 0, 0, 0, 0, 0, 0, 0, 0], [1, 0, 0, 0, 0, 0, 0, 0, 0, 0, 0, 0], [1, 0, 0, 0, 0, 0, 0, 0, 0, 0, 0, 0], [1, 0, 0, 0, 0, 0, 0, 0, 0, 0, 0, 0], [1, 0, 0, 0, 0, 0, 0, 0, 0, 0, 0, 0]], [[0, 1, 0, 0, 0, 0, 0, 0, 0, 0, 0, 0], [0, 1, 0, 0, 0, 0, 0, 0, 0, 0, 0, 0], [0, 1, 0, 0, 0, 0, 0, 0, 0, 0, 0, 0], [0, 1, 0, 0, 0, 0, 0, 0, 0, 0, 0, 0], [0, 1, 0, 0, 0, 0, 0, 0, 0, 0, 0, 0], [0, 1, 0, 0, 0, 0, 0, 0, 0, 0, 0, 0], [0, 1, 0, 0, 0, 0, 0, 0, 0, 0, 0, 0]], [[0, 0, 1, 0, 0, 0, 0, 0, 0, 0, 0, 0], [0, 0, 1, 0, 0, 0, 0, 0, 0, 0, 0, 0], [0, 0, 1, 0, 0, 0, 0, 0, 0, 0, 0, 0], [0, 0, 1, 0, 0, 0, 0, 0, 0, 0, 0, 0], [0, 0, 1, 0, 0, 0, 0, 0, 0, 0, 0, 0], [0, 0, 1, 0, 0, 0, 0, 0, 0, 0, 0, 0], [0, 0, 1, 0, 0, 0, 0, 0, 0, 0, 0, 0]], [[0, 0, 0, 1, 0, 0, 0, 0, 0, 0, 0, 0], [0, 0, 0, 1, 0, 0, 0, 0, 0, 0, 0, 0], [0, 0, 0, 1, 0, 0, 0, 0, 0, 0, 0, 0], [0, 0, 0, 1, 0, 0, 0, 0, 0, 0, 0, 0], [0, 0, 0, 1, 0, 0, 0, 0, 0, 0, 0, 0], [0, 0, 0, 1, 0, 0, 0, 0, 0, 0, 0, 0], [0, 0, 0, 1, 0, 0, 0, 0, 0, 0, 0, 0]], [[0, 0, 0, 0, 1, 0, 0, 0, 0, 0, 0, 0], [0, 0, 0, 0, 1, 0, 0, 0, 0, 0, 0, 0], [0, 0, 0, 0, 1, 0, 0, 0, 0, 0, 0, 0], [0, 0, 0, 0, 1, 0, 0, 0, 0, 0, 0, 0], [0, 0, 0, 0, 1, 0, 0, 0, 0, 0, 0, 0], [0, 0, 0, 0, 1, 0, 0, 0, 0, 0, 0, 0], [0, 0, 0, 0, 1, 0, 0, 0, 0, 0, 0, 0]], [[0, 0, 0, 0, 0, 1, 0, 0, 0, 0, 0, 0], [0, 0, 0, 0, 0, 1, 0, 0, 0, 0, 0, 0], [0, 0, 0, 0, 0, 1, 0, 0, 0, 0, 0, 0], [0, 0, 0, 0, 0, 1, 0, 0, 0, 0, 0, 0], [0, 0, 0, 0, 0, 1, 0, 0, 0, 0, 0, 0], [0, 0, 0, 0, 0, 1, 0, 0, 0, 0, 0, 0], [0, 0, 0, 0, 0, 1, 0, 0, 0, 0, 0, 0]], [[0, 0, 0, 0, 0, 0, 1, 0, 0, 0, 0, 0], [0, 0, 0, 0, 0, 0, 1, 0, 0, 0, 0, 0], [0, 0, 0, 0, 0, 0, 1, 0, 0, 0, 0, 0], [0, 0, 0, 0, 0, 0, 1, 0, 0, 0, 0, 0], [0, 0, 0, 0, 0, 0, 1, 0, 0, 0, 0, 0], [0, 0, 0, 0, 0, 0, 1, 0, 0, 0, 0, 0], [0, 0, 0, 0, 0, 0, 1, 0, 0, 0, 0, 0]], [[0, 0, 0, 0, 0, 0, 0, 1, 0, 0, 0, 0], [0, 0, 0, 0, 0, 0, 0, 1, 0, 0, 0, 0], [0, 0, 0, 0, 0, 0, 0, 1, 0, 0, 0, 0], [0, 0, 0, 0, 0, 0, 0, 1, 0, 0, 0, 0], [0, 0, 0, 0, 0, 0, 0, 1, 0, 0, 0, 0], [0, 0, 0, 0, 0, 0, 0, 1, 0, 0, 0, 0], [0, 0, 0, 0, 0, 0, 0, 1, 0, 0, 0, 0]], [[0, 0, 0, 0, 0, 0, 0, 0, 1, 0, 0, 0], [0, 0, 0, 0, 0, 0, 0, 0, 1, 0, 0, 0], [0, 0, 0, 0, 0, 0, 0, 0, 1, 0, 0, 0], [0, 0, 0, 0, 0, 0, 0, 0, 1, 0, 0, 0], [0, 0, 0, 0, 0, 0, 0, 0, 1, 0, 0, 0], [0, 0, 0, 0, 0, 0, 0, 0, 1, 0, 0, 0], [0, 0, 0, 0, 0, 0, 0, 0, 1, 0, 0, 0]], [[0, 0, 0, 0, 0, 0, 0, 0, 0, 1, 0, 0], [0, 0, 0, 0, 0, 0, 0, 0, 0, 1, 0, 0], [0, 0, 0, 0, 0, 0, 0, 0, 0, 1, 0, 0], [0, 0, 0, 0, 0, 0, 0, 0, 0, 1, 0, 0], [0, 0, 0, 0, 0, 0, 0, 0, 0, 1, 0, 0], [0, 0, 0, 0, 0, 0, 0, 0, 0, 1, 0, 0], [0, 0, 0, 0, 0, 0, 0, 0, 0, 1, 0, 0]], [[0, 0, 0, 0, 0, 0, 0, 0, 0, 0, 1, 0], [0, 0, 0, 0, 0, 0, 0, 0, 0, 0, 1, 0], [0, 0, 0, 0, 0, 0, 0, 0, 0, 0, 1, 0], [0, 0, 0, 0, 0, 0, 0, 0, 0, 0, 1, 0], [0, 0, 0, 0, 0, 0, 0, 0, 0, 0, 1, 0], [0, 0, 0, 0, 0, 0, 0, 0, 0, 0, 1, 0], [0, 0, 0, 0, 0, 0, 0, 0, 0, 0, 1, 0]], [[0, 0, 0, 0, 0, 0, 0, 0, 0, 0, 0, 1], [0, 0, 0, 0, 0, 0, 0, 0, 0, 0, 0, 1], [0, 0, 0, 0, 0, 0, 0, 0, 0, 0, 0, 1], [0, 0, 0, 0, 0, 0, 0, 0, 0, 0, 0, 1], [0, 0, 0, 0, 0, 0, 0, 0, 0, 0, 0, 1], [0, 0, 0, 0, 0, 0, 0, 0, 0, 0, 0, 1], [0, 0, 0, 0, 0, 0, 0, 0, 0, 0, 0, 1]]], prehc: 0, lambdahc: 0.208, rcut: 4.152, dcut: 0.01, rcut_in: 0.0, dcut_in: 0.0, inner_cutoff_type: distance}
  [1, 1]: {nradmax: 12, lmax: 6, nradbasemax: 12, radbasename: ChebExpCos, radparameters: [0.286], radcoefficients: [[[1, 0, 0, 0, 0, 0, 0, 0, 0, 0, 0, 0], [1, 0, 0, 0, 0, 0, 0, 0, 0, 0, 0, 0], [1, 0, 0, 0, 0, 0, 0, 0, 0, 0, 0, 0], [1, 0, 0, 0, 0, 0, 0, 0, 0, 0, 0, 0], [1, 0, 0, 0, 0, 0, 0, 0, 0, 0, 0, 0], [1, 0, 0, 0, 0, 0, 0, 0, 0, 0, 0, 0], [1, 0, 0, 0, 0, 0, 0, 0, 0, 0, 0, 0]], [[0, 1, 0, 0, 0, 0, 0, 0, 0, 0, 0, 0], [0, 1, 0, 0, 0, 0, 0, 0, 0, 0, 0, 0], [0, 1, 0, 0, 0, 0, 0, 0, 0, 0, 0, 0], [0, 1, 0, 0, 0, 0, 0, 0, 0, 0, 0, 0], [0, 1, 0, 0, 0, 0, 0, 0, 0, 0, 0, 0], [0, 1, 0, 0, 0, 0, 0, 0, 0, 0, 0, 0], [0, 1, 0, 0, 0, 0, 0, 0, 0, 0, 0, 0]], [[0, 0, 1, 0, 0, 0, 0, 0, 0, 0, 0, 0], [0, 0, 1, 0, 0, 0, 0, 0, 0, 0, 0, 0], [0, 0, 1, 0, 0, 0, 0, 0, 0, 0, 0, 0], [0, 0, 1, 0, 0, 0, 0, 0, 0, 0, 0, 0], [0, 0, 1, 0, 0, 0, 0, 0, 0, 0, 0, 0], [0, 0, 1, 0, 0, 0, 0, 0, 0, 0, 0, 0], [0, 0, 1, 0, 0, 0, 0, 0, 0, 0, 0, 0]], [[0, 0, 0, 1, 0, 0, 0, 0, 0, 0, 0, 0], [0, 0, 0, 1, 0, 0, 0, 0, 0, 0, 0, 0], [0, 0, 0, 1, 0, 0, 0, 0, 0, 0, 0, 0], [0, 0, 0, 1, 0, 0, 0, 0, 0, 0, 0, 0], [0, 0, 0, 1, 0, 0, 0, 0, 0, 0, 0, 0], [0, 0, 0, 1, 0, 0, 0, 0, 0, 0, 0, 0], [0, 0, 0, 1, 0, 0, 0, 0, 0, 0, 0, 0]], [[0, 0, 0, 0, 1, 0, 0, 0, 0, 0, 0, 0], [0, 0, 0, 0, 1, 0, 0, 0, 0, 0, 0, 0], [0, 0, 0, 0, 1, 0, 0, 0, 0, 0, 0, 0], [0, 0, 0, 0, 1, 0, 0, 0, 0, 0, 0, 0], [0, 0, 0, 0, 1, 0, 0, 0, 0, 0, 0, 0], [0, 0, 0, 0, 1, 0, 0, 0, 0, 0, 0, 0], [0, 0, 0, 0, 1, 0, 0, 0, 0, 0, 0, 0]], [[0, 0, 0, 0, 0, 1, 0, 0, 0, 0, 0, 0], [0, 0, 0, 0, 0, 1, 0, 0, 0, 0, 0, 0], [0, 0, 0, 0, 0, 1, 0, 0, 0, 0, 0, 0], [0, 0, 0, 0, 0, 1, 0, 0, 0, 0, 0, 0], [0, 0, 0, 0, 0, 1, 0, 0, 0, 0, 0, 0], [0, 0, 0, 0, 0, 1, 0, 0, 0, 0, 0, 0], [0, 0, 0, 0, 0, 1, 0, 0, 0, 0, 0, 0]], [[0, 0, 0, 0, 0, 0, 1, 0, 0, 0, 0, 0], [0, 0, 0, 0, 0, 0, 1, 0, 0, 0, 0, 0], [0, 0, 0, 0, 0, 0, 1, 0, 0, 0, 0, 0], [0, 0, 0, 0, 0, 0, 1, 0, 0, 0, 0, 0], [0, 0, 0, 0, 0, 0, 1, 0, 0, 0, 0, 0], [0, 0, 0, 0, 0, 0, 1, 0, 0, 0, 0, 0], [0, 0, 0, 0, 0, 0, 1, 0, 0, 0, 0, 0]], [[0, 0, 0, 0, 0, 0, 0, 1, 0, 0, 0, 0], [0, 0, 0, 0, 0, 0, 0, 1, 0, 0, 0, 0], [0, 0, 0, 0, 0, 0, 0, 1, 0, 0, 0, 0], [0, 0, 0, 0, 0, 0, 0, 1, 0, 0, 0, 0], [0, 0, 0, 0, 0, 0, 0, 1, 0, 0, 0, 0], [0, 0, 0, 0, 0, 0, 0, 1, 0, 0, 0, 0], [0, 0, 0, 0, 0, 0, 0, 1, 0, 0, 0, 0]], [[0, 0, 0, 0, 0, 0, 0, 0, 1, 0, 0, 0], [0, 0, 0, 0, 0, 0, 0, 0, 1, 0, 0, 0], [0, 0, 0, 0, 0, 0, 0, 0, 1, 0, 0, 0], [0, 0, 0, 0, 0, 0, 0, 0, 1, 0, 0, 0], [0, 0, 0, 0, 0, 0, 0, 0, 1, 0, 0, 0], [0, 0, 0, 0, 0, 0, 0, 0, 1, 0, 0, 0], [0, 0, 0, 0, 0, 0, 0, 0, 1, 0, 0, 0]], [[0, 0, 0, 0, 0, 0, 0, 0, 0, 1, 0, 0], [0, 0, 0, 0, 0, 0, 0, 0, 0, 1, 0, 0], [0, 0, 0, 0, 0, 0, 0, 0, 0, 1, 0, 0], [0, 0, 0, 0, 0, 0, 0, 0, 0, 1, 0, 0], [0, 0, 0, 0, 0, 0, 0, 0, 0, 1, 0, 0], [0, 0, 0, 0, 0, 0, 0, 0, 0, 1, 0, 0], [0, 0, 0, 0, 0, 0, 0, 0, 0, 1, 0, 0]], [[0, 0, 0, 0, 0, 0, 0, 0, 0, 0, 1, 0], [0, 0, 0, 0, 0, 0, 0, 0, 0, 0, 1, 0], [0, 0, 0, 0, 0, 0, 0, 0, 0, 0, 1, 0], [0, 0, 0, 0, 0, 0, 0, 0, 0, 0, 1, 0], [0, 0, 0, 0, 0, 0, 0, 0, 0, 0, 1, 0], [0, 0, 0, 0, 0, 0, 0, 0, 0, 0, 1, 0], [0, 0, 0, 0, 0, 0, 0, 0, 0, 0, 1, 0]], [[0, 0, 0, 0, 0, 0, 0, 0, 0, 0, 0, 1], [0, 0, 0, 0, 0, 0, 0, 0, 0, 0, 0, 1], [0, 0, 0, 0, 0, 0, 0, 0, 0, 0, 0, 1], [0, 0, 0, 0, 0, 0, 0, 0, 0, 0, 0, 1], [0, 0, 0, 0, 0, 0, 0, 0, 0, 0, 0, 1], [0, 0, 0, 0, 0, 0, 0, 0, 0, 0, 0, 1], [0, 0, 0, 0, 0, 0, 0, 0, 0, 0, 0, 1]]], prehc: 0, lambdahc: 0.286, rcut: 5.71, dcut: 0.01, rcut_in: 0.0, dcut_in: 0.0, inner_cutoff_type: distance}
functions:
  0:
    - {mu0: 0, rank: 1, ndensity: 1, num_ms_combs: 1, mus: [0], ns: [1], ls: [0], ms_combs: [0], ctildes: [1.0]}
  1:
    - {mu0: 1, rank: 1, ndensity: 1, num_ms_combs: 1, mus: [0], ns: [1], ls: [0], ms_combs: [0], ctildes: [1.0]}
    - {mu0: 1, rank: 1, ndensity: 1, num_ms_combs: 1, mus: [0], ns: [2], ls: [0], ms_combs: [0], ctildes: [1.0]}
    - {mu0: 1, rank: 1, ndensity: 1, num_ms_combs: 1, mus: [0], ns: [3], ls: [0], ms_combs: [0], ctildes: [1.0]}
    - {mu0: 1, rank: 1, ndensity: 1, num_ms_combs: 1, mus: [0], ns: [4], ls: [0], ms_combs: [0], ctildes: [1.0]}
    - {mu0: 1, rank: 1, ndensity: 1, num_ms_combs: 1, mus: [0], ns: [5], ls: [0], ms_combs: [0], ctildes: [1.0]}
    - {mu0: 1, rank: 1, ndensity: 1, num_ms_combs: 1, mus: [0], ns: [6], ls: [0], ms_combs: [0], ctildes: [1.0]}
    - {mu0: 1, rank: 1, ndensity: 1, num_ms_combs: 1, mus: [0], ns: [7], ls: [0], ms_combs: [0], ctildes: [1.0]}
    - {mu0: 1, rank: 1, ndensity: 1, num_ms_combs: 1, mus: [0], ns: [8], ls: [0], ms_combs: [0], ctildes: [1.0]}
    - {mu0: 1, rank: 1, ndensity: 1, num_ms_combs: 1, mus: [0], ns: [9], ls: [0], ms_combs: [0], ctildes: [1.0]}
    - {mu0: 1, rank: 1, ndensity: 1, num_ms_combs: 1, mus: [0], ns: [10], ls: [0], ms_combs: [0], ctildes: [1.0]}
    - {mu0: 1, rank: 1, ndensity: 1, num_ms_combs: 1, mus: [0], ns: [11], ls: [0], ms_combs: [0], ctildes: [1.0]}
    - {mu0: 1, rank: 1, ndensity: 1, num_ms_combs: 1, mus: [0], ns: [12], ls: [0], ms_combs: [0], ctildes: [1.0]}
    - {mu0: 1, rank: 2, ndensity: 1, num_ms_combs: 1, mus: [0, 0], ns: [1, 1], ls: [0, 0], ms_combs: [0, 0], ctildes: [1.0]}
    - {mu0: 1, rank: 2, ndensity: 1, num_ms_combs: 1, mus: [0, 0], ns: [1, 2], ls: [0, 0], ms_combs: [0, 0], ctildes: [1.0]}
    - {mu0: 1, rank: 2, ndensity: 1, num_ms_combs: 1, mus: [0, 0], ns: [1, 3], ls: [0, 0], ms_combs: [0, 0], ctildes: [1.0]}
    - {mu0: 1, rank: 2, ndensity: 1, num_ms_combs: 1, mus: [0, 0], ns: [1, 4], ls: [0, 0], ms_combs: [0, 0], ctildes: [1.0]}
    - {mu0: 1, rank: 2, ndensity: 1, num_ms_combs: 1, mus: [0, 0], ns: [1, 5], ls: [0, 0], ms_combs: [0, 0], ctildes: [1.0]}
    - {mu0: 1, rank: 2, ndensity: 1, num_ms_combs: 1, mus: [0, 0], ns: [1, 6], ls: [0, 0], ms_combs: [0, 0], ctildes: [1.0]}
    - {mu0: 1, rank: 2, ndensity: 1, num_ms_combs: 1, mus: [0, 0], ns: [2, 2], ls: [0, 0], ms_combs: [0, 0], ctildes: [1.0]}
    - {mu0: 1, rank: 2, ndensity: 1, num_ms_combs: 1, mus: [0, 0], ns: [2, 3], ls: [0, 0], ms_combs: [0, 0], ctildes: [1.0]}
    - {mu0: 1, rank: 2, ndensity: 1, num_ms_combs: 1, mus: [0, 0], ns: [2, 4], ls: [0, 0], ms_combs: [0, 0], ctildes: [1.0]}
    - {mu0: 1, rank: 2, ndensity: 1, num_ms_combs: 1, mus: [0, 0], ns: [2, 5], ls: [0, 0], ms_combs: [0, 0], ctildes: [1.0]}
    - {mu0: 1, rank: 2, ndensity: 1, num_ms_combs: 1, mus: [0, 0], ns: [2, 6], ls: [0, 0], ms_combs: [0, 0], ctildes: [1.0]}
    - {mu0: 1, rank: 2, ndensity: 1, num_ms_combs: 1, mus: [0, 0], ns: [3, 3], ls: [0, 0], ms_combs: [0, 0], ctildes: [1.0]}
    - {mu0: 1, rank: 2, ndensity: 1, num_ms_combs: 1, mus: [0, 0], ns: [3, 4], ls: [0, 0], ms_combs: [0, 0], ctildes: [1.0]}
    - {mu0: 1, rank: 2, ndensity: 1, num_ms_combs: 1, mus: [0, 0], ns: [3, 5], ls: [0, 0], ms_combs: [0, 0], ctildes: [1.0]}
    - {mu0: 1, rank: 2, ndensity: 1, num_ms_combs: 1, mus: [0, 0], ns: [3, 6], ls: [0, 0], ms_combs: [0, 0], ctildes: [1.0]}
    - {mu0: 1, rank: 2, ndensity: 1, num_ms_combs: 1, mus: [0, 0], ns: [4, 4], ls: [0, 0], ms_combs: [0, 0], ctildes: [1.0]}
    - {mu0: 1, rank: 2, ndensity: 1, num_ms_combs: 1, mus: [0, 0], ns: [4, 5], ls: [0, 0], ms_combs: [0, 0], ctildes: [1.0]}
    - {mu0: 1, rank: 2, ndensity: 1, num_ms_combs: 1, mus: [0, 0], ns: [4, 6], ls: [0, 0], ms_combs: [0, 0], ctildes: [1.0]}
    - {mu0: 1, rank: 2, ndensity: 1, num_ms_combs: 1, mus: [0, 0], ns: [5, 5], ls: [0, 0], ms_combs: [0, 0], ctildes: [1.0]}
    - {mu0: 1, rank: 2, ndensity: 1, num_ms_combs: 1, mus: [0, 0], ns: [5, 6], ls: [0, 0], ms_combs: [0, 0], ctildes: [1.0]}
    - {mu0: 1, rank: 2, ndensity: 1, num_ms_combs: 1, mus: [0, 0], ns: [6, 6], ls: [0, 0], ms_combs: [0, 0], ctildes: [1.0]}
    - {mu0: 1, rank: 2, ndensity: 1, num_ms_combs: 3, mus: [0, 0], ns: [1, 1], ls: [1, 1], ms_combs: [-1, 1, 0, 0, 1, -1], ctildes: [0.5773502691896257, -0.5773502691896257, 0.5773502691896257]}
    - {mu0: 1, rank: 2, ndensity: 1, num_ms_combs: 3, mus: [0, 0], ns: [1, 2], ls: [1, 1], ms_combs: [-1, 1, 0, 0, 1, -1], ctildes: [0.5773502691896257, -0.5773502691896257, 0.5773502691896257]}
    - {mu0: 1, rank: 2, ndensity: 1, num_ms_combs: 3, mus: [0, 0], ns: [1, 3], ls: [1, 1], ms_combs: [-1, 1, 0, 0, 1, -1], ctildes: [0.5773502691896257, -0.5773502691896257, 0.5773502691896257]}
    - {mu0: 1, rank: 2, ndensity: 1, num_ms_combs: 3, mus: [0, 0], ns: [1, 4], ls: [1, 1], ms_combs: [-1, 1, 0, 0, 1, -1], ctildes: [0.5773502691896257, -0.5773502691896257, 0.5773502691896257]}
    - {mu0: 1, rank: 2, ndensity: 1, num_ms_combs: 3, mus: [0, 0], ns: [1, 5], ls: [1, 1], ms_combs: [-1, 1, 0, 0, 1, -1], ctildes: [0.5773502691896257, -0.5773502691896257, 0.5773502691896257]}
    - {mu0: 1, rank: 2, ndensity: 1, num_ms_combs: 3, mus: [0, 0], ns: [1, 6], ls: [1, 1], ms_combs: [-1, 1, 0, 0, 1, -1], ctildes: [0.5773502691896257, -0.5773502691896257, 0.5773502691896257]}
    - {mu0: 1, rank: 2, ndensity: 1, num_ms_combs: 3, mus: [0, 0], ns: [2, 2], ls: [1, 1], ms_combs: [-1, 1, 0, 0, 1, -1], ctildes: [0.5773502691896257, -0.5773502691896257, 0.5773502691896257]}
    - {mu0: 1, rank: 2, ndensity: 1, num_ms_combs: 3, mus: [0, 0], ns: [2, 3], ls: [1, 1], ms_combs: [-1, 1, 0, 0, 1, -1], ctildes: [0.5773502691896257, -0.5773502691896257, 0.5773502691896257]}
    - {mu0: 1, rank: 2, ndensity: 1, num_ms_combs: 3, mus: [0, 0], ns: [2, 4], ls: [1, 1], ms_combs: [-1, 1, 0, 0, 1, -1], ctildes: [0.5773502691896257, -0.5773502691896257, 0.5773502691896257]}
    - {mu0: 1, rank: 2, ndensity: 1, num_ms_combs: 3, mus: [0, 0], ns: [2, 5], ls: [1, 1], ms_combs: [-1, 1, 0, 0, 1, -1], ctildes: [0.5773502691896257, -0.5773502691896257, 0.5773502691896257]}
    - {mu0: 1, rank: 2, ndensity: 1, num_ms_combs: 3, mus: [0, 0], ns: [2, 6], ls: [1, 1], ms_combs: [-1, 1, 0, 0, 1, -1], ctildes: [0.5773502691896257, -0.5773502691896257, 0.5773502691896257]}
    - {mu0: 1, rank: 2, ndensity: 1, num_ms_combs: 3, mus: [0, 0], ns: [3, 3], ls: [1, 1], ms_combs: [-1, 1, 0, 0, 1, -1], ctildes: [0.5773502691896257, -0.5773502691896257, 0.5773502691896257]}
    - {mu0: 1, rank: 2, ndensity: 1, num_ms_combs: 3, mus: [0, 0], ns: [3, 4], ls: [1, 1], ms_combs: [-1, 1, 0, 0, 1, -1], ctildes: [0.5773502691896257, -0.5773502691896257, 0.5773502691896257]}
    - {mu0: 1, rank: 2, ndensity: 1, num_ms_combs: 3, mus: [0, 0], ns: [3, 5], ls: [1, 1], ms_combs: [-1, 1, 0, 0, 1, -1], ctildes: [0.5773502691896257, -0.5773502691896257, 0.5773502691896257]}
    - {mu0: 1, rank: 2, ndensity: 1, num_ms_combs: 3, mus: [0, 0], ns: [3, 6], ls: [1, 1], ms_combs: [-1, 1, 0, 0, 1, -1], ctildes: [0.5773502691896257, -0.5773502691896257, 0.5773502691896257]}
    - {mu0: 1, rank: 2, ndensity: 1, num_ms_combs: 3, mus: [0, 0], ns: [4, 4], ls: [1, 1], ms_combs: [-1, 1, 0, 0, 1, -1], ctildes: [0.5773502691896257, -0.5773502691896257, 0.5773502691896257]}
    - {mu0: 1, rank: 2, ndensity: 1, num_ms_combs: 3, mus: [0, 0], ns: [4, 5], ls: [1, 1], ms_combs: [-1, 1, 0, 0, 1, -1], ctildes: [0.5773502691896257, -0.5773502691896257, 0.5773502691896257]}
    - {mu0: 1, rank: 2, ndensity: 1, num_ms_combs: 3, mus: [0, 0], ns: [4, 6], ls: [1, 1], ms_combs: [-1, 1, 0, 0, 1, -1], ctildes: [0.5773502691896257, -0.5773502691896257, 0.5773502691896257]}
    - {mu0: 1, rank: 2, ndensity: 1, num_ms_combs: 3, mus: [0, 0], ns: [5, 5], ls: [1, 1], ms_combs: [-1, 1, 0, 0, 1, -1], ctildes: [0.5773502691896257, -0.5773502691896257, 0.5773502691896257]}
    - {mu0: 1, rank: 2, ndensity: 1, num_ms_combs: 3, mus: [0, 0], ns: [5, 6], ls: [1, 1], ms_combs: [-1, 1, 0, 0, 1, -1], ctildes: [0.5773502691896257, -0.5773502691896257, 0.5773502691896257]}
    - {mu0: 1, rank: 2, ndensity: 1, num_ms_combs: 3, mus: [0, 0], ns: [6, 6], ls: [1, 1], ms_combs: [-1, 1, 0, 0, 1, -1], ctildes: [0.5773502691896257, -0.5773502691896257, 0.5773502691896257]}
    - {mu0: 1, rank: 2, ndensity: 1, num_ms_combs: 5, mus: [0, 0], ns: [1, 1], ls: [2, 2], ms_combs: [-2, 2, -1, 1, 0, 0, 1, -1, 2, -2], ctildes: [0.4472135954999579, -0.4472135954999579, 0.447213595499958, -0.4472135954999579, 0.4472135954999579]}
    - {mu0: 1, rank: 2, ndensity: 1, num_ms_combs: 5, mus: [0, 0], ns: [1, 2], ls: [2, 2], ms_combs: [-2, 2, -1, 1, 0, 0, 1, -1, 2, -2], ctildes: [0.4472135954999579, -0.4472135954999579, 0.447213595499958, -0.4472135954999579, 0.4472135954999579]}
    - {mu0: 1, rank: 2, ndensity: 1, num_ms_combs: 5, mus: [0, 0], ns: [1, 3], ls: [2, 2], ms_combs: [-2, 2, -1, 1, 0, 0, 1, -1, 2, -2], ctildes: [0.4472135954999579, -0.4472135954999579, 0.447213595499958, -0.4472135954999579, 0.4472135954999579]}
    - {mu0: 1, rank: 2, ndensity: 1, num_ms_combs: 5, mus: [0, 0], ns: [1, 4], ls: [2, 2], ms_combs: [-2, 2, -1, 1, 0, 0, 1, -1, 2, -2], ctildes: [0.4472135954999579, -0.4472135954999579, 0.447213595499958, -0.4472135954999579, 0.4472135954999579]}
    - {mu0: 1, rank: 2, ndensity: 1, num_ms_combs: 5, mus: [0, 0], ns: [1, 5], ls: [2, 2], ms_combs: [-2, 2, -1, 1, 0, 0, 1, -1, 2, -2], ctildes: [0.4472135954999579, -0.4472135954999579, 0.447213595499958, -0.4472135954999579, 0.4472135954999579]}
    - {mu0: 1, rank: 2, ndensity: 1, num_ms_combs: 5, mus: [0, 0], ns: [1, 6], ls: [2, 2], ms_combs: [-2, 2, -1, 1, 0, 0, 1, -1, 2, -2], ctildes: [0.4472135954999579, -0.4472135954999579, 0.447213595499958, -0.4472135954999579, 0.4472135954999579]}
    - {mu0: 1, rank: 2, ndensity: 1, num_ms_combs: 5, mus: [0, 0], ns: [2, 2], ls: [2, 2], ms_combs: [-2, 2, -1, 1, 0, 0, 1, -1, 2, -2], ctildes: [0.4472135954999579, -0.4472135954999579, 0.447213595499958, -0.4472135954999579, 0.4472135954999579]}
    - {mu0: 1, rank: 2, ndensity: 1, num_ms_combs: 5, mus: [0, 0], ns: [2, 3], ls: [2, 2], ms_combs: [-2, 2, -1, 1, 0, 0, 1, -1, 2, -2], ctildes: [0.4472135954999579, -0.4472135954999579, 0.447213595499958, -0.4472135954999579, 0.4472135954999579]}
    - {mu0: 1, rank: 2, ndensity: 1, num_ms_combs: 5, mus: [0, 0], ns: [2, 4], ls: [2, 2], ms_combs: [-2, 2, -1, 1, 0, 0, 1, -1, 2, -2], ctildes: [0.4472135954999579, -0.4472135954999579, 0.447213595499958, -0.4472135954999579, 0.4472135954999579]}
    - {mu0: 1, rank: 2, ndensity: 1, num_ms_combs: 5, mus: [0, 0], ns: [2, 5], ls: [2, 2], ms_combs: [-2, 2, -1, 1, 0, 0, 1, -1, 2, -2], ctildes: [0.4472135954999579, -0.4472135954999579, 0.447213595499958, -0.4472135954999579, 0.4472135954999579]}
    - {mu0: 1, rank: 2, ndensity: 1, num_ms_combs: 5, mus: [0, 0], ns: [2, 6], ls: [2, 2], ms_combs: [-2, 2, -1, 1, 0, 0, 1, -1, 2, -2], ctildes: [0.4472135954999579, -0.4472135954999579, 0.447213595499958, -0.4472135954999579, 0.4472135954999579]}
    - {mu0: 1, rank: 2, ndensity: 1, num_ms_combs: 5, mus: [0, 0], ns: [3, 3], ls: [2, 2], ms_combs: [-2, 2, -1, 1, 0, 0, 1, -1, 2, -2], ctildes: [0.4472135954999579, -0.4472135954999579, 0.447213595499958, -0.4472135954999579, 0.4472135954999579]}
    - {mu0: 1, rank: 2, ndensity: 1, num_ms_combs: 5, mus: [0, 0], ns: [3, 4], ls: [2, 2], ms_combs: [-2, 2, -1, 1, 0, 0, 1, -1, 2, -2], ctildes: [0.4472135954999579, -0.4472135954999579, 0.447213595499958, -0.4472135954999579, 0.4472135954999579]}
    - {mu0: 1, rank: 2, ndensity: 1, num_ms_combs: 5, mus: [0, 0], ns: [3, 5], ls: [2, 2], ms_combs: [-2, 2, -1, 1, 0, 0, 1, -1, 2, -2], ctildes: [0.4472135954999579, -0.4472135954999579, 0.447213595499958, -0.4472135954999579, 0.4472135954999579]}
    - {mu0: 1, rank: 2, ndensity: 1, num_ms_combs: 5, mus: [0, 0], ns: [3, 6], ls: [2, 2], ms_combs: [-2, 2, -1, 1, 0, 0, 1, -1, 2, -2], ctildes: [0.4472135954999579, -0.4472135954999579, 0.447213595499958, -0.4472135954999579, 0.4472135954999579]}
    - {mu0: 1, rank: 2, ndensity: 1, num_ms_combs: 5, mus: [0, 0], ns: [4, 4], ls: [2, 2], ms_combs: [-2, 2, -1, 1, 0, 0, 1, -1, 2, -2], ctildes: [0.4472135954999579, -0.4472135954999579, 0.447213595499958, -0.4472135954999579, 0.4472135954999579]}
    - {mu0: 1, rank: 2, ndensity: 1, num_ms_combs: 5, mus: [0, 0], ns: [4, 5], ls: [2, 2], ms_combs: [-2, 2, -1, 1, 0, 0, 1, -1, 2, -2], ctildes: [0.4472135954999579, -0.4472135954999579, 0.447213595499958, -0.4472135954999579, 0.4472135954999579]}
    - {mu0: 1, rank: 2, ndensity: 1, num_ms_combs: 5, mus: [0, 0], ns: [4, 6], ls: [2, 2], ms_combs: [-2, 2, -1, 1, 0, 0, 1, -1, 2, -2], ctildes: [0.4472135954999579, -0.4472135954999579, 0.447213595499958, -0.4472135954999579, 0.4472135954999579]}
    - {mu0: 1, rank: 2, ndensity: 1, num_ms_combs: 5, mus: [0, 0], ns: [5, 5], ls: [2, 2], ms_combs: [-2, 2, -1, 1, 0, 0, 1, -1, 2, -2], ctildes: [0.4472135954999579, -0.4472135954999579, 0.447213595499958, -0.4472135954999579, 0.4472135954999579]}
    - {mu0: 1, rank: 2, ndensity: 1, num_ms_combs: 5, mus: [0, 0], ns: [5, 6], ls: [2, 2], ms_combs: [-2, 2, -1, 1, 0, 0, 1, -1, 2, -2], ctildes: [0.4472135954999579, -0.4472135954999579, 0.447213595499958, -0.4472135954999579, 0.4472135954999579]}
    - {mu0: 1, rank: 2, ndensity: 1, num_ms_combs: 5, mus: [0, 0], ns: [6, 6], ls: [2, 2], ms_combs: [-2, 2, -1, 1, 0, 0, 1, -1, 2, -2], ctildes: [0.4472135954999579, -0.4472135954999579, 0.447213595499958, -0.4472135954999579, 0.4472135954999579]}
    - {mu0: 1, rank: 2, ndensity: 1, num_ms_combs: 7, mus: [0, 0], ns: [1, 1], ls: [3, 3], ms_combs: [-3, 3, -2, 2, -1, 1, 0, 0, 1, -1, 2, -2, 3, -3], ctildes: [0.3779644730092272, -0.37796447300922725, 0.3779644730092272, -0.3779644730092272, 0.3779644730092272, -0.37796447300922725, 0.3779644730092272]}
    - {mu0: 1, rank: 2, ndensity: 1, num_ms_combs: 7, mus: [0, 0], ns: [1, 2], ls: [3, 3], ms_combs: [-3, 3, -2, 2, -1, 1, 0, 0, 1, -1, 2, -2, 3, -3], ctildes: [0.3779644730092272, -0.37796447300922725, 0.3779644730092272, -0.3779644730092272, 0.3779644730092272, -0.37796447300922725, 0.3779644730092272]}
    - {mu0: 1, rank: 2, ndensity: 1, num_ms_combs: 7, mus: [0, 0], ns: [1, 3], ls: [3, 3], ms_combs: [-3, 3, -2, 2, -1, 1, 0, 0, 1, -1, 2, -2, 3, -3], ctildes: [0.3779644730092272, -0.37796447300922725, 0.3779644730092272, -0.3779644730092272, 0.3779644730092272, -0.37796447300922725, 0.3779644730092272]}
    - {mu0: 1, rank: 2, ndensity: 1, num_ms_combs: 7, mus: [0, 0], ns: [1, 4], ls: [3, 3], ms_combs: [-3, 3, -2, 2, -1, 1, 0, 0, 1, -1, 2, -2, 3, -3], ctildes: [0.3779644730092272, -0.37796447300922725, 0.3779644730092272, -0.3779644730092272, 0.3779644730092272, -0.37796447300922725, 0.3779644730092272]}
    - {mu0: 1, rank: 2, ndensity: 1, num_ms_combs: 7, mus: [0, 0], ns: [1, 5], ls: [3, 3], ms_combs: [-3, 3, -2, 2, -1, 1, 0, 0, 1, -1, 2, -2, 3, -3], ctildes: [0.3779644730092272, -0.37796447300922725, 0.3779644730092272, -0.3779644730092272, 0.3779644730092272, -0.37796447300922725, 0.3779644730092272]}
    - {mu0: 1, rank: 2, ndensity: 1, num_ms_combs: 7, mus: [0, 0], ns: [1, 6], ls: [3, 3], ms_combs: [-3, 3, -2, 2, -1, 1, 0, 0, 1, -1, 2, -2, 3, -3], ctildes: [0.3779644730092272, -0.37796447300922725, 0.3779644730092272, -0.3779644730092272, 0.3779644730092272, -0.37796447300922725, 0.3779644730092272]}
    - {mu0: 1, rank: 2, ndensity: 1, num_ms_combs: 7, mus: [0, 0], ns: [2, 2], ls: [3, 3], ms_combs: [-3, 3, -2, 2, -1, 1, 0, 0, 1, -1, 2, -2, 3, -3], ctildes: [0.3779644730092272, -0.37796447300922725, 0.3779644730092272, -0.3779644730092272, 0.3779644730092272, -0.37796447300922725, 0.3779644730092272]}
    - {mu0: 1, rank: 2, ndensity: 1, num_ms_combs: 7, mus: [0, 0], ns: [2, 3], ls: [3, 3], ms_combs: [-3, 3, -2, 2, -1, 1, 0, 0, 1, -1, 2, -2, 3, -3], ctildes: [0.3779644730092272, -0.37796447300922725, 0.3779644730092272, -0.3779644730092272, 0.3779644730092272, -0.37796447300922725, 0.3779644730092272]}
    - {mu0: 1, rank: 2, ndensity: 1, num_ms_combs: 7, mus: [0, 0], ns: [2, 4], ls: [3, 3], ms_combs: [-3, 3, -2, 2, -1, 1, 0, 0, 1, -1, 2, -2, 3, -3], ctildes: [0.3779644730092272, -0.37796447300922725, 0.3779644730092272, -0.3779644730092272, 0.3779644730092272, -0.37796447300922725, 0.3779644730092272]}
    - {mu0: 1, rank: 2, ndensity: 1, num_ms_combs: 7, mus: [0, 0], ns: [2, 5], ls: [3, 3], ms_combs: [-3, 3, -2, 2, -1, 1, 0, 0, 1, -1, 2, -2, 3, -3], ctildes: [0.3779644730092272, -0.37796447300922725, 0.3779644730092272, -0.3779644730092272, 0.3779644730092272, -0.37796447300922725, 0.3779644730092272]}
    - {mu0: 1, rank: 2, ndensity: 1, num_ms_combs: 7, mus: [0, 0], ns: [2, 6], ls: [3, 3], ms_combs: [-3, 3, -2, 2, -1, 1, 0, 0, 1, -1, 2, -2, 3, -3], ctildes: [0.3779644730092272, -0.37796447300922725, 0.3779644730092272, -0.3779644730092272, 0.3779644730092272, -0.37796447300922725, 0.3779644730092272]}
    - {mu0: 1, rank: 2, ndensity: 1, num_ms_combs: 7, mus: [0, 0], ns: [3, 3], ls: [3, 3], ms_combs: [-3, 3, -2, 2, -1, 1, 0, 0, 1, -1, 2, -2, 3, -3], ctildes: [0.3779644730092272, -0.37796447300922725, 0.3779644730092272, -0.3779644730092272, 0.3779644730092272, -0.37796447300922725, 0.3779644730092272]}
    - {mu0: 1, rank: 2, ndensity: 1, num_ms_combs: 7, mus: [0, 0], ns: [3, 4], ls: [3, 3], ms_combs: [-3, 3, -2, 2, -1, 1, 0, 0, 1, -1, 2, -2, 3, -3], ctildes: [0.3779644730092272, -0.37796447300922725, 0.3779644730092272, -0.3779644730092272, 0.3779644730092272, -0.37796447300922725, 0.3779644730092272]}
    - {mu0: 1, rank: 2, ndensity: 1, num_ms_combs: 7, mus: [0, 0], ns: [3, 5], ls: [3, 3], ms_combs: [-3, 3, -2, 2, -1, 1, 0, 0, 1, -1, 2, -2, 3, -3], ctildes: [0.3779644730092272, -0.37796447300922725, 0.3779644730092272, -0.3779644730092272, 0.3779644730092272, -0.37796447300922725, 0.3779644730092272]}
    - {mu0: 1, rank: 2, ndensity: 1, num_ms_combs: 7, mus: [0, 0], ns: [3, 6], ls: [3, 3], ms_combs: [-3, 3, -2, 2, -1, 1, 0, 0, 1, -1, 2, -2, 3, -3], ctildes: [0.3779644730092272, -0.37796447300922725, 0.3779644730092272, -0.3779644730092272, 0.3779644730092272, -0.37796447300922725, 0.3779644730092272]}
    - {mu0: 1, rank: 2, ndensity: 1, num_ms_combs: 7, mus: [0, 0], ns: [4, 4], ls: [3, 3], ms_combs: [-3, 3, -2, 2, -1, 1, 0, 0, 1, -1, 2, -2, 3, -3], ctildes: [0.3779644730092272, -0.37796447300922725, 0.3779644730092272, -0.3779644730092272, 0.3779644730092272, -0.37796447300922725, 0.3779644730092272]}
    - {mu0: 1, rank: 2, ndensity: 1, num_ms_combs: 7, mus: [0, 0], ns: [4, 5], ls: [3, 3], ms_combs: [-3, 3, -2, 2, -1, 1, 0, 0, 1, -1, 2, -2, 3, -3], ctildes: [0.3779644730092272, -0.37796447300922725, 0.3779644730092272, -0.3779644730092272, 0.3779644730092272, -0.37796447300922725, 0.3779644730092272]}
    - {mu0: 1, rank: 2, ndensity: 1, num_ms_combs: 7, mus: [0, 0], ns: [4, 6], ls: [3, 3], ms_combs: [-3, 3, -2, 2, -1, 1, 0, 0, 1, -1, 2, -2, 3, -3], ctildes: [0.3779644730092272, -0.37796447300922725, 0.3779644730092272, -0.3779644730092272, 0.3779644730092272, -0.37796447300922725, 0.3779644730092272]}
    - {mu0: 1, rank: 2, ndensity: 1, num_ms_combs: 7, mus: [0, 0], ns: [5, 5], ls: [3, 3], ms_combs: [-3, 3, -2, 2, -1, 1, 0, 0, 1, -1, 2, -2, 3, -3], ctildes: [0.3779644730092272, -0.37796447300922725, 0.3779644730092272, -0.3779644730092272, 0.3779644730092272, -0.37796447300922725, 0.3779644730092272]}
    - {mu0: 1, rank: 2, ndensity: 1, num_ms_combs: 7, mus: [0, 0], ns: [5, 6], ls: [3, 3], ms_combs: [-3, 3, -2, 2, -1, 1, 0, 0, 1, -1, 2, -2, 3, -3], ctildes: [0.3779644730092272, -0.37796447300922725, 0.3779644730092272, -0.3779644730092272, 0.3779644730092272, -0.37796447300922725, 0.3779644730092272]}
    - {mu0: 1, rank: 2, ndensity: 1, num_ms_combs: 7, mus: [0, 0], ns: [6, 6], ls: [3, 3], ms_combs: [-3, 3, -2, 2, -1, 1, 0, 0, 1, -1, 2, -2, 3, -3], ctildes: [0.3779644730092272, -0.37796447300922725, 0.3779644730092272, -0.3779644730092272, 0.3779644730092272, -0.37796447300922725, 0.3779644730092272]}
    - {mu0: 1, rank: 2, ndensity: 1, num_ms_combs: 9, mus: [0, 0], ns: [1, 1], ls: [4, 4], ms_combs: [-4, 4, -3, 3, -2, 2, -1, 1, 0, 0, 1, -1, 2, -2, 3, -3, 4, -4], ctildes: [0.3333333333333333, -0.3333333333333333, 0.3333333333333333, -0.3333333333333333, 0.33333333333333337, -0.3333333333333333, 0.3333333333333333, -0.3333333333333333, 0.3333333333333333]}
    - {mu0: 1, rank: 2, ndensity: 1, num_ms_combs: 9, mus: [0, 0], ns: [1, 2], ls: [4, 4], ms_combs: [-4, 4, -3, 3, -2, 2, -1, 1, 0, 0, 1, -1, 2, -2, 3, -3, 4, -4], ctildes: [0.3333333333333333, -0.3333333333333333, 0.3333333333333333, -0.3333333333333333, 0.33333333333333337, -0.3333333333333333, 0.3333333333333333, -0.3333333333333333, 0.3333333333333333]}
    - {mu0: 1, rank: 2, ndensity: 1, num_ms_combs: 9, mus: [0, 0], ns: [1, 3], ls: [4, 4], ms_combs: [-4, 4, -3, 3, -2, 2, -1, 1, 0, 0, 1, -1, 2, -2, 3, -3, 4, -4], ctildes: [0.3333333333333333, -0.3333333333333333, 0.3333333333333333, -0.3333333333333333, 0.33333333333333337, -0.3333333333333333, 0.3333333333333333, -0.3333333333333333, 0.3333333333333333]}
    - {mu0: 1, rank: 2, ndensity: 1, num_ms_combs: 9, mus: [0, 0], ns: [1, 4], ls: [4, 4], ms_combs: [-4, 4, -3, 3, -2, 2, -1, 1, 0, 0, 1, -1, 2, -2, 3, -3, 4, -4], ctildes: [0.3333333333333333, -0.3333333333333333, 0.3333333333333333, -0.3333333333333333, 0.33333333333333337, -0.3333333333333333, 0.3333333333333333, -0.3333333333333333, 0.3333333333333333]}
    - {mu0: 1, rank: 2, ndensity: 1, num_ms_combs: 9, mus: [0, 0], ns: [1, 5], ls: [4, 4], ms_combs: [-4, 4, -3, 3, -2, 2, -1, 1, 0, 0, 1, -1, 2, -2, 3, -3, 4, -4], ctildes: [0.3333333333333333, -0.3333333333333333, 0.3333333333333333, -0.3333333333333333, 0.33333333333333337, -0.3333333333333333, 0.3333333333333333, -0.3333333333333333, 0.3333333333333333]}
    - {mu0: 1, rank: 2, ndensity: 1, num_ms_combs: 9, mus: [0, 0], ns: [1, 6], ls: [4, 4], ms_combs: [-4, 4, -3, 3, -2, 2, -1, 1, 0, 0, 1, -1, 2, -2, 3, -3, 4, -4], ctildes: [0.3333333333333333, -0.3333333333333333, 0.3333333333333333, -0.3333333333333333, 0.33333333333333337, -0.3333333333333333, 0.3333333333333333, -0.3333333333333333, 0.3333333333333333]}
    - {mu0: 1, rank: 2, ndensity: 1, num_ms_combs: 9, mus: [0, 0], ns: [2, 2], ls: [4, 4], ms_combs: [-4, 4, -3, 3, -2, 2, -1, 1, 0, 0, 1, -1, 2, -2, 3, -3, 4, -4], ctildes: [0.3333333333333333, -0.3333333333333333, 0.3333333333333333, -0.3333333333333333, 0.33333333333333337, -0.3333333333333333, 0.3333333333333333, -0.3333333333333333, 0.3333333333333333]}
    - {mu0: 1, rank: 2, ndensity: 1, num_ms_combs: 9, mus: [0, 0], ns: [2, 3], ls: [4, 4], ms_combs: [-4, 4, -3, 3, -2, 2, -1, 1, 0, 0, 1, -1, 2, -2, 3, -3, 4, -4], ctildes: [0.3333333333333333, -0.3333333333333333, 0.3333333333333333, -0.3333333333333333, 0.33333333333333337, -0.3333333333333333, 0.3333333333333333, -0.3333333333333333, 0.3333333333333333]}
    - {mu0: 1, rank: 2, ndensity: 1, num_ms_combs: 9, mus: [0, 0], ns: [2, 4], ls: [4, 4], ms_combs: [-4, 4, -3, 3, -2, 2, -1, 1, 0, 0, 1, -1, 2, -2, 3, -3, 4, -4], ctildes: [0.3333333333333333, -0.3333333333333333, 0.3333333333333333, -0.3333333333333333, 0.33333333333333337, -0.3333333333333333, 0.3333333333333333, -0.3333333333333333, 0.3333333333333333]}
    - {mu0: 1, rank: 2, ndensity: 1, num_ms_combs: 9, mus: [0, 0], ns: [2, 5], ls: [4, 4], ms_combs: [-4, 4, -3, 3, -2, 2, -1, 1, 0, 0, 1, -1, 2, -2, 3, -3, 4, -4], ctildes: [0.3333333333333333, -0.3333333333333333, 0.3333333333333333, -0.3333333333333333, 0.33333333333333337, -0.3333333333333333, 0.3333333333333333, -0.3333333333333333, 0.3333333333333333]}
    - {mu0: 1, rank: 2, ndensity: 1, num_ms_combs: 9, mus: [0, 0], ns: [2, 6], ls: [4, 4], ms_combs: [-4, 4, -3, 3, -2, 2, -1, 1, 0, 0, 1, -1, 2, -2, 3, -3, 4, -4], ctildes: [0.3333333333333333, -0.3333333333333333, 0.3333333333333333, -0.3333333333333333, 0.33333333333333337, -0.3333333333333333, 0.3333333333333333, -0.3333333333333333, 0.3333333333333333]}
    - {mu0: 1, rank: 2, ndensity: 1, num_ms_combs: 9, mus: [0, 0], ns: [3, 3], ls: [4, 4], ms_combs: [-4, 4, -3, 3, -2, 2, -1, 1, 0, 0, 1, -1, 2, -2, 3, -3, 4, -4], ctildes: [0.3333333333333333, -0.3333333333333333, 0.3333333333333333, -0.3333333333333333, 0.33333333333333337, -0.3333333333333333, 0.3333333333333333, -0.3333333333333333, 0.3333333333333333]}
    - {mu0: 1, rank: 2, ndensity: 1, num_ms_combs: 9, mus: [0, 0], ns: [3, 4], ls: [4, 4], ms_combs: [-4, 4, -3, 3, -2, 2, -1, 1, 0, 0, 1, -1, 2, -2, 3, -3, 4, -4], ctildes: [0.3333333333333333, -0.3333333333333333, 0.3333333333333333, -0.3333333333333333, 0.33333333333333337, -0.3333333333333333, 0.3333333333333333, -0.3333333333333333, 0.3333333333333333]}
    - {mu0: 1, rank: 2, ndensity: 1, num_ms_combs: 9, mus: [0, 0], ns: [3, 5], ls: [4, 4], ms_combs: [-4, 4, -3, 3, -2, 2, -1, 1, 0, 0, 1, -1, 2, -2, 3, -3, 4, -4], ctildes: [0.3333333333333333, -0.3333333333333333, 0.3333333333333333, -0.3333333333333333, 0.33333333333333337, -0.3333333333333333, 0.3333333333333333, -0.3333333333333333, 0.3333333333333333]}
    - {mu0: 1, rank: 2, ndensity: 1, num_ms_combs: 9, mus: [0, 0], ns: [3, 6], ls: [4, 4], ms_combs: [-4, 4, -3, 3, -2, 2, -1, 1, 0, 0, 1, -1, 2, -2, 3, -3, 4, -4], ctildes: [0.3333333333333333, -0.3333333333333333, 0.3333333333333333, -0.3333333333333333, 0.33333333333333337, -0.3333333333333333, 0.3333333333333333, -0.3333333333333333, 0.3333333333333333]}
    - {mu0: 1, rank: 2, ndensity: 1, num_ms_combs: 9, mus: [0, 0], ns: [4, 4], ls: [4, 4], ms_combs: [-4, 4, -3, 3, -2, 2, -1, 1, 0, 0, 1, -1, 2, -2, 3, -3, 4, -4], ctildes: [0.3333333333333333, -0.3333333333333333, 0.3333333333333333, -0.3333333333333333, 0.33333333333333337, -0.3333333333333333, 0.3333333333333333, -0.3333333333333333, 0.3333333333333333]}
    - {mu0: 1, rank: 2, ndensity: 1, num_ms_combs: 9, mus: [0, 0], ns: [4, 5], ls: [4, 4], ms_combs: [-4, 4, -3, 3, -2, 2, -1, 1, 0, 0, 1, -1, 2, -2, 3, -3, 4, -4], ctildes: [0.3333333333333333, -0.3333333333333333, 0.3333333333333333, -0.3333333333333333, 0.33333333333333337, -0.3333333333333333, 0.3333333333333333, -0.3333333333333333, 0.3333333333333333]}
    - {mu0: 1, rank: 2, ndensity: 1, num_ms_combs: 9, mus: [0, 0], ns: [4, 6], ls: [4, 4], ms_combs: [-4, 4, -3, 3, -2, 2, -1, 1, 0, 0, 1, -1, 2, -2, 3, -3, 4, -4], ctildes: [0.3333333333333333, -0.3333333333333333, 0.3333333333333333, -0.3333333333333333, 0.33333333333333337, -0.3333333333333333, 0.3333333333333333, -0.3333333333333333, 0.3333333333333333]}
    - {mu0: 1, rank: 2, ndensity: 1, num_ms_combs: 9, mus: [0, 0], ns: [5, 5], ls: [4, 4], ms_combs: [-4, 4, -3, 3, -2, 2, -1, 1, 0, 0, 1, -1, 2, -2, 3, -3, 4, -4], ctildes: [0.3333333333333333, -0.3333333333333333, 0.3333333333333333, -0.3333333333333333, 0.33333333333333337, -0.3333333333333333, 0.3333333333333333, -0.3333333333333333, 0.3333333333333333]}
    - {mu0: 1, rank: 2, ndensity: 1, num_ms_combs: 9, mus: [0, 0], ns: [5, 6], ls: [4, 4], ms_combs: [-4, 4, -3, 3, -2, 2, -1, 1, 0, 0, 1, -1, 2, -2, 3, -3, 4, -4], ctildes: [0.3333333333333333, -0.3333333333333333, 0.3333333333333333, -0.3333333333333333, 0.33333333333333337, -0.3333333333333333, 0.3333333333333333, -0.3333333333333333, 0.3333333333333333]}
    - {mu0: 1, rank: 2, ndensity: 1, num_ms_combs: 9, mus: [0, 0], ns: [6, 6], ls: [4, 4], ms_combs: [-4, 4, -3, 3, -2, 2, -1, 1, 0, 0, 1, -1, 2, -2, 3, -3, 4, -4], ctildes: [0.3333333333333333, -0.3333333333333333, 0.3333333333333333, -0.3333333333333333, 0.33333333333333337, -0.3333333333333333, 0.3333333333333333, -0.3333333333333333, 0.3333333333333333]}
    - {mu0: 1, rank: 2, ndensity: 1, num_ms_combs: 11, mus: [0, 0], ns: [1, 1], ls: [5, 5], ms_combs: [-5, 5, -4, 4, -3, 3, -2, 2, -1, 1, 0, 0, 1, -1, 2, -2, 3, -3, 4, -4, 5, -5], ctildes: [0.30151134457776363, -0.30151134457776363, 0.30151134457776363, -0.3015113445777636, 0.30151134457776363, -0.3015113445777637, 0.30151134457776363, -0.3015113445777636, 0.30151134457776363, -0.30151134457776363, 0.30151134457776363]}
    - {mu0: 1, rank: 2, ndensity: 1, num_ms_combs: 11, mus: [0, 0], ns: [1, 2], ls: [5, 5], ms_combs: [-5, 5, -4, 4, -3, 3, -2, 2, -1, 1, 0, 0, 1, -1, 2, -2, 3, -3, 4, -4, 5, -5], ctildes: [0.30151134457776363, -0.30151134457776363, 0.30151134457776363, -0.3015113445777636, 0.30151134457776363, -0.3015113445777637, 0.30151134457776363, -0.3015113445777636, 0.30151134457776363, -0.30151134457776363, 0.30151134457776363]}
    - {mu0: 1, rank: 2, ndensity: 1, num_ms_combs: 11, mus: [0, 0], ns: [1, 3], ls: [5, 5], ms_combs: [-5, 5, -4, 4, -3, 3, -2, 2, -1, 1, 0, 0, 1, -1, 2, -2, 3, -3, 4, -4, 5, -5], ctildes: [0.30151134457776363, -0.30151134457776363, 0.30151134457776363, -0.3015113445777636, 0.30151134457776363, -0.3015113445777637, 0.30151134457776363, -0.3015113445777636, 0.30151134457776363, -0.30151134457776363, 0.30151134457776363]}
    - {mu0: 1, rank: 2, ndensity: 1, num_ms_combs: 11, mus: [0, 0], ns: [1, 4], ls: [5, 5], ms_combs: [-5, 5, -4, 4, -3, 3, -2, 2, -1, 1, 0, 0, 1, -1, 2, -2, 3, -3, 4, -4, 5, -5], ctildes: [0.30151134457776363, -0.30151134457776363, 0.30151134457776363, -0.3015113445777636, 0.30151134457776363, -0.3015113445777637, 0.30151134457776363, -0.3015113445777636, 0.30151134457776363, -0.30151134457776363, 0.30151134457776363]}
    - {mu0: 1, rank: 2, ndensity: 1, num_ms_combs: 11, mus: [0, 0], ns: [1, 5], ls: [5, 5], ms_combs: [-5, 5, -4, 4, -3, 3, -2, 2, -1, 1, 0, 0, 1, -1, 2, -2, 3, -3, 4, -4, 5, -5], ctildes: [0.30151134457776363, -0.30151134457776363, 0.30151134457776363, -0.3015113445777636, 0.30151134457776363, -0.3015113445777637, 0.30151134457776363, -0.3015113445777636, 0.30151134457776363, -0.30151134457776363, 0.30151134457776363]}
    - {mu0: 1, rank: 2, ndensity: 1, num_ms_combs: 11, mus: [0, 0], ns: [1, 6], ls: [5, 5], ms_combs: [-5, 5, -4, 4, -3, 3, -2, 2, -1, 1, 0, 0, 1, -1, 2, -2, 3, -3, 4, -4, 5, -5], ctildes: [0.30151134457776363, -0.30151134457776363, 0.30151134457776363, -0.3015113445777636, 0.30151134457776363, -0.3015113445777637, 0.30151134457776363, -0.3015113445777636, 0.30151134457776363, -0.30151134457776363, 0.30151134457776363]}
    - {mu0: 1, rank: 2, ndensity: 1, num_ms_combs: 11, mus: [0, 0], ns: [2, 2], ls: [5, 5], ms_combs: [-5, 5, -4, 4, -3, 3, -2, 2, -1, 1, 0, 0, 1, -1, 2, -2, 3, -3, 4, -4, 5, -5], ctildes: [0.30151134457776363, -0.30151134457776363, 0.30151134457776363, -0.3015113445777636, 0.30151134457776363, -0.3015113445777637, 0.30151134457776363, -0.3015113445777636, 0.30151134457776363, -0.30151134457776363, 0.30151134457776363]}
    - {mu0: 1, rank: 2, ndensity: 1, num_ms_combs: 11, mus: [0, 0], ns: [2, 3], ls: [5, 5], ms_combs: [-5, 5, -4, 4, -3, 3, -2, 2, -1, 1, 0, 0, 1, -1, 2, -2, 3, -3, 4, -4, 5, -5], ctildes: [0.30151134457776363, -0.30151134457776363, 0.30151134457776363, -0.3015113445777636, 0.30151134457776363, -0.3015113445777637, 0.30151134457776363, -0.3015113445777636, 0.30151134457776363, -0.30151134457776363, 0.30151134457776363]}
    - {mu0: 1, rank: 2, ndensity: 1, num_ms_combs: 11, mus: [0, 0], ns: [2, 4], ls: [5, 5], ms_combs: [-5, 5, -4, 4, -3, 3, -2, 2, -1, 1, 0, 0, 1, -1, 2, -2, 3, -3, 4, -4, 5, -5], ctildes: [0.30151134457776363, -0.30151134457776363, 0.30151134457776363, -0.3015113445777636, 0.30151134457776363, -0.3015113445777637, 0.30151134457776363, -0.3015113445777636, 0.30151134457776363, -0.30151134457776363, 0.30151134457776363]}
    - {mu0: 1, rank: 2, ndensity: 1, num_ms_combs: 11, mus: [0, 0], ns: [2, 5], ls: [5, 5], ms_combs: [-5, 5, -4, 4, -3, 3, -2, 2, -1, 1, 0, 0, 1, -1, 2, -2, 3, -3, 4, -4, 5, -5], ctildes: [0.30151134457776363, -0.30151134457776363, 0.30151134457776363, -0.3015113445777636, 0.30151134457776363, -0.3015113445777637, 0.30151134457776363, -0.3015113445777636, 0.30151134457776363, -0.30151134457776363, 0.30151134457776363]}
    - {mu0: 1, rank: 2, ndensity: 1, num_ms_combs: 11, mus: [0, 0], ns: [2, 6], ls: [5, 5], ms_combs: [-5, 5, -4, 4, -3, 3, -2, 2, -1, 1, 0, 0, 1, -1, 2, -2, 3, -3, 4, -4, 5, -5], ctildes: [0.30151134457776363, -0.30151134457776363, 0.30151134457776363, -0.3015113445777636, 0.30151134457776363, -0.3015113445777637, 0.30151134457776363, -0.3015113445777636, 0.30151134457776363, -0.30151134457776363, 0.30151134457776363]}
    - {mu0: 1, rank: 2, ndensity: 1, num_ms_combs: 11, mus: [0, 0], ns: [3, 3], ls: [5, 5], ms_combs: [-5, 5, -4, 4, -3, 3, -2, 2, -1, 1, 0, 0, 1, -1, 2, -2, 3, -3, 4, -4, 5, -5], ctildes: [0.30151134457776363, -0.30151134457776363, 0.30151134457776363, -0.3015113445777636, 0.30151134457776363, -0.3015113445777637, 0.30151134457776363, -0.3015113445777636, 0.30151134457776363, -0.30151134457776363, 0.30151134457776363]}
    - {mu0: 1, rank: 2, ndensity: 1, num_ms_combs: 11, mus: [0, 0], ns: [3, 4], ls: [5, 5], ms_combs: [-5, 5, -4, 4, -3, 3, -2, 2, -1, 1, 0, 0, 1, -1, 2, -2, 3, -3, 4, -4, 5, -5], ctildes: [0.30151134457776363, -0.30151134457776363, 0.30151134457776363, -0.3015113445777636, 0.30151134457776363, -0.3015113445777637, 0.30151134457776363, -0.3015113445777636, 0.30151134457776363, -0.30151134457776363, 0.30151134457776363]}
    - {mu0: 1, rank: 2, ndensity: 1, num_ms_combs: 11, mus: [0, 0], ns: [3, 5], ls: [5, 5], ms_combs: [-5, 5, -4, 4, -3, 3, -2, 2, -1, 1, 0, 0, 1, -1, 2, -2, 3, -3, 4, -4, 5, -5], ctildes: [0.30151134457776363, -0.30151134457776363, 0.30151134457776363, -0.3015113445777636, 0.30151134457776363, -0.3015113445777637, 0.30151134457776363, -0.3015113445777636, 0.30151134457776363, -0.30151134457776363, 0.30151134457776363]}
    - {mu0: 1, rank: 2, ndensity: 1, num_ms_combs: 11, mus: [0, 0], ns: [3, 6], ls: [5, 5], ms_combs: [-5, 5, -4, 4, -3, 3, -2, 2, -1, 1, 0, 0, 1, -1, 2, -2, 3, -3, 4, -4, 5, -5], ctildes: [0.30151134457776363, -0.30151134457776363, 0.30151134457776363, -0.3015113445777636, 0.30151134457776363, -0.3015113445777637, 0.30151134457776363, -0.3015113445777636, 0.30151134457776363, -0.30151134457776363, 0.30151134457776363]}
    - {mu0: 1, rank: 2, ndensity: 1, num_ms_combs: 11, mus: [0, 0], ns: [4, 4], ls: [5, 5], ms_combs: [-5, 5, -4, 4, -3, 3, -2, 2, -1, 1, 0, 0, 1, -1, 2, -2, 3, -3, 4, -4, 5, -5], ctildes: [0.30151134457776363, -0.30151134457776363, 0.30151134457776363, -0.3015113445777636, 0.30151134457776363, -0.3015113445777637, 0.30151134457776363, -0.3015113445777636, 0.30151134457776363, -0.30151134457776363, 0.30151134457776363]}
    - {mu0: 1, rank: 2, ndensity: 1, num_ms_combs: 11, mus: [0, 0], ns: [4, 5], ls: [5, 5], ms_combs: [-5, 5, -4, 4, -3, 3, -2, 2, -1, 1, 0, 0, 1, -1, 2, -2, 3, -3, 4, -4, 5, -5], ctildes: [0.30151134457776363, -0.30151134457776363, 0.30151134457776363, -0.3015113445777636, 0.30151134457776363, -0.3015113445777637, 0.30151134457776363, -0.3015113445777636, 0.30151134457776363, -0.30151134457776363, 0.30151134457776363]}
    - {mu0: 1, rank: 2, ndensity: 1, num_ms_combs: 11, mus: [0, 0], ns: [4, 6], ls: [5, 5], ms_combs: [-5, 5, -4, 4, -3, 3, -2, 2, -1, 1, 0, 0, 1, -1, 2, -2, 3, -3, 4, -4, 5, -5], ctildes: [0.30151134457776363, -0.30151134457776363, 0.30151134457776363, -0.3015113445777636, 0.30151134457776363, -0.3015113445777637, 0.30151134457776363, -0.3015113445777636, 0.30151134457776363, -0.30151134457776363, 0.30151134457776363]}
    - {mu0: 1, rank: 2, ndensity: 1, num_ms_combs: 11, mus: [0, 0], ns: [5, 5], ls: [5, 5], ms_combs: [-5, 5, -4, 4, -3, 3, -2, 2, -1, 1, 0, 0, 1, -1, 2, -2, 3, -3, 4, -4, 5, -5], ctildes: [0.30151134457776363, -0.30151134457776363, 0.30151134457776363, -0.3015113445777636, 0.30151134457776363, -0.3015113445777637, 0.30151134457776363, -0.3015113445777636, 0.30151134457776363, -0.30151134457776363, 0.30151134457776363]}
    - {mu0: 1, rank: 2, ndensity: 1, num_ms_combs: 11, mus: [0, 0], ns: [5, 6], ls: [5, 5], ms_combs: [-5, 5, -4, 4, -3, 3, -2, 2, -1, 1, 0, 0, 1, -1, 2, -2, 3, -3, 4, -4, 5, -5], ctildes: [0.30151134457776363, -0.30151134457776363, 0.30151134457776363, -0.3015113445777636, 0.30151134457776363, -0.3015113445777637, 0.30151134457776363, -0.3015113445777636, 0.30151134457776363, -0.30151134457776363, 0.30151134457776363]}
    - {mu0: 1, rank: 2, ndensity: 1, num_ms_combs: 11, mus: [0, 0], ns: [6, 6], ls: [5, 5], ms_combs: [-5, 5, -4, 4, -3, 3, -2, 2, -1, 1, 0, 0, 1, -1, 2, -2, 3, -3, 4, -4, 5, -5], ctildes: [0.30151134457776363, -0.30151134457776363, 0.30151134457776363, -0.3015113445777636, 0.30151134457776363, -0.3015113445777637, 0.30151134457776363, -0.3015113445777636, 0.30151134457776363, -0.30151134457776363, 0.30151134457776363]}
    - {mu0: 1, rank: 2, ndensity: 1, num_ms_combs: 13, mus: [0, 0], ns: [1, 1], ls: [6, 6], ms_combs: [-6, 6, -5, 5, -4, 4, -3, 3, -2, 2, -1, 1, 0, 0, 1, -1, 2, -2, 3, -3, 4, -4, 5, -5, 6, -6], ctildes: [0.2773500981126146, -0.2773500981126146, 0.2773500981126145, -0.2773500981126145, 0.2773500981126146, -0.2773500981126146, 0.2773500981126146, -0.2773500981126146, 0.2773500981126146, -0.2773500981126145, 0.2773500981126145, -0.2773500981126146, 0.2773500981126146]}
    - {mu0: 1, rank: 2, ndensity: 1, num_ms_combs: 13, mus: [0, 0], ns: [1, 2], ls: [6, 6], ms_combs: [-6, 6, -5, 5, -4, 4, -3, 3, -2, 2, -1, 1, 0, 0, 1, -1, 2, -2, 3, -3, 4, -4, 5, -5, 6, -6], ctildes: [0.2773500981126146, -0.2773500981126146, 0.2773500981126145, -0.2773500981126145, 0.2773500981126146, -0.2773500981126146, 0.2773500981126146, -0.2773500981126146, 0.2773500981126146, -0.2773500981126145, 0.2773500981126145, -0.2773500981126146, 0.2773500981126146]}
    - {mu0: 1, rank: 2, ndensity: 1, num_ms_combs: 13, mus: [0, 0], ns: [1, 3], ls: [6, 6], ms_combs: [-6, 6, -5, 5, -4, 4, -3, 3, -2, 2, -1, 1, 0, 0, 1, -1, 2, -2, 3, -3, 4, -4, 5, -5, 6, -6], ctildes: [0.2773500981126146, -0.2773500981126146, 0.2773500981126145, -0.2773500981126145, 0.2773500981126146, -0.2773500981126146, 0.2773500981126146, -0.2773500981126146, 0.2773500981126146, -0.2773500981126145, 0.2773500981126145, -0.2773500981126146, 0.2773500981126146]}
    - {mu0: 1, rank: 2, ndensity: 1, num_ms_combs: 13, mus: [0, 0], ns: [1, 4], ls: [6, 6], ms_combs: [-6, 6, -5, 5, -4, 4, -3, 3, -2, 2, -1, 1, 0, 0, 1, -1, 2, -2, 3, -3, 4, -4, 5, -5, 6, -6], ctildes: [0.2773500981126146, -0.2773500981126146, 0.2773500981126145, -0.2773500981126145, 0.2773500981126146, -0.2773500981126146, 0.2773500981126146, -0.2773500981126146, 0.2773500981126146, -0.2773500981126145, 0.2773500981126145, -0.2773500981126146, 0.2773500981126146]}
    - {mu0: 1, rank: 2, ndensity: 1, num_ms_combs: 13, mus: [0, 0], ns: [1, 5], ls: [6, 6], ms_combs: [-6, 6, -5, 5, -4, 4, -3, 3, -2, 2, -1, 1, 0, 0, 1, -1, 2, -2, 3, -3, 4, -4, 5, -5, 6, -6], ctildes: [0.2773500981126146, -0.2773500981126146, 0.2773500981126145, -0.2773500981126145, 0.2773500981126146, -0.2773500981126146, 0.2773500981126146, -0.2773500981126146, 0.2773500981126146, -0.2773500981126145, 0.2773500981126145, -0.2773500981126146, 0.2773500981126146]}
    - {mu0: 1, rank: 2, ndensity: 1, num_ms_combs: 13, mus: [0, 0], ns: [1, 6], ls: [6, 6], ms_combs: [-6, 6, -5, 5, -4, 4, -3, 3, -2, 2, -1, 1, 0, 0, 1, -1, 2, -2, 3, -3, 4, -4, 5, -5, 6, -6], ctildes: [0.2773500981126146, -0.2773500981126146, 0.2773500981126145, -0.2773500981126145, 0.2773500981126146, -0.2773500981126146, 0.2773500981126146, -0.2773500981126146, 0.2773500981126146, -0.2773500981126145, 0.2773500981126145, -0.2773500981126146, 0.2773500981126146]}
    - {mu0: 1, rank: 2, ndensity: 1, num_ms_combs: 13, mus: [0, 0], ns: [2, 2], ls: [6, 6], ms_combs: [-6, 6, -5, 5, -4, 4, -3, 3, -2, 2, -1, 1, 0, 0, 1, -1, 2, -2, 3, -3, 4, -4, 5, -5, 6, -6], ctildes: [0.2773500981126146, -0.2773500981126146, 0.2773500981126145, -0.2773500981126145, 0.2773500981126146, -0.2773500981126146, 0.2773500981126146, -0.2773500981126146, 0.2773500981126146, -0.2773500981126145, 0.2773500981126145, -0.2773500981126146, 0.2773500981126146]}
    - {mu0: 1, rank: 2, ndensity: 1, num_ms_combs: 13, mus: [0, 0], ns: [2, 3], ls: [6, 6], ms_combs: [-6, 6, -5, 5, -4, 4, -3, 3, -2, 2, -1, 1, 0, 0, 1, -1, 2, -2, 3, -3, 4, -4, 5, -5, 6, -6], ctildes: [0.2773500981126146, -0.2773500981126146, 0.2773500981126145, -0.2773500981126145, 0.2773500981126146, -0.2773500981126146, 0.2773500981126146, -0.2773500981126146, 0.2773500981126146, -0.2773500981126145, 0.2773500981126145, -0.2773500981126146, 0.2773500981126146]}
    - {mu0: 1, rank: 2, ndensity: 1, num_ms_combs: 13, mus: [0, 0], ns: [2, 4], ls: [6, 6], ms_combs: [-6, 6, -5, 5, -4, 4, -3, 3, -2, 2, -1, 1, 0, 0, 1, -1, 2, -2, 3, -3, 4, -4, 5, -5, 6, -6], ctildes: [0.2773500981126146, -0.2773500981126146, 0.2773500981126145, -0.2773500981126145, 0.2773500981126146, -0.2773500981126146, 0.2773500981126146, -0.2773500981126146, 0.2773500981126146, -0.2773500981126145, 0.2773500981126145, -0.2773500981126146, 0.2773500981126146]}
    - {mu0: 1, rank: 2, ndensity: 1, num_ms_combs: 13, mus: [0, 0], ns: [2, 5], ls: [6, 6], ms_combs: [-6, 6, -5, 5, -4, 4, -3, 3, -2, 2, -1, 1, 0, 0, 1, -1, 2, -2, 3, -3, 4, -4, 5, -5, 6, -6], ctildes: [0.2773500981126146, -0.2773500981126146, 0.2773500981126145, -0.2773500981126145, 0.2773500981126146, -0.2773500981126146, 0.2773500981126146, -0.2773500981126146, 0.2773500981126146, -0.2773500981126145, 0.2773500981126145, -0.2773500981126146, 0.2773500981126146]}
    - {mu0: 1, rank: 2, ndensity: 1, num_ms_combs: 13, mus: [0, 0], ns: [2, 6], ls: [6, 6], ms_combs: [-6, 6, -5, 5, -4, 4, -3, 3, -2, 2, -1, 1, 0, 0, 1, -1, 2, -2, 3, -3, 4, -4, 5, -5, 6, -6], ctildes: [0.2773500981126146, -0.2773500981126146, 0.2773500981126145, -0.2773500981126145, 0.2773500981126146, -0.2773500981126146, 0.2773500981126146, -0.2773500981126146, 0.2773500981126146, -0.2773500981126145, 0.2773500981126145, -0.2773500981126146, 0.2773500981126146]}
    - {mu0: 1, rank: 2, ndensity: 1, num_ms_combs: 13, mus: [0, 0], ns: [3, 3], ls: [6, 6], ms_combs: [-6, 6, -5, 5, -4, 4, -3, 3, -2, 2, -1, 1, 0, 0, 1, -1, 2, -2, 3, -3, 4, -4, 5, -5, 6, -6], ctildes: [0.2773500981126146, -0.2773500981126146, 0.2773500981126145, -0.2773500981126145, 0.2773500981126146, -0.2773500981126146, 0.2773500981126146, -0.2773500981126146, 0.2773500981126146, -0.2773500981126145, 0.2773500981126145, -0.2773500981126146, 0.2773500981126146]}
    - {mu0: 1, rank: 2, ndensity: 1, num_ms_combs: 13, mus: [0, 0], ns: [3, 4], ls: [6, 6], ms_combs: [-6, 6, -5, 5, -4, 4, -3, 3, -2, 2, -1, 1, 0, 0, 1, -1, 2, -2, 3, -3, 4, -4, 5, -5, 6, -6], ctildes: [0.2773500981126146, -0.2773500981126146, 0.2773500981126145, -0.2773500981126145, 0.2773500981126146, -0.2773500981126146, 0.2773500981126146, -0.2773500981126146, 0.2773500981126146, -0.2773500981126145, 0.2773500981126145, -0.2773500981126146, 0.2773500981126146]}
    - {mu0: 1, rank: 2, ndensity: 1, num_ms_combs: 13, mus: [0, 0], ns: [3, 5], ls: [6, 6], ms_combs: [-6, 6, -5, 5, -4, 4, -3, 3, -2, 2, -1, 1, 0, 0, 1, -1, 2, -2, 3, -3, 4, -4, 5, -5, 6, -6], ctildes: [0.2773500981126146, -0.2773500981126146, 0.2773500981126145, -0.2773500981126145, 0.2773500981126146, -0.2773500981126146, 0.2773500981126146, -0.2773500981126146, 0.2773500981126146, -0.2773500981126145, 0.2773500981126145, -0.2773500981126146, 0.2773500981126146]}
    - {mu0: 1, rank: 2, ndensity: 1, num_ms_combs: 13, mus: [0, 0], ns: [3, 6], ls: [6, 6], ms_combs: [-6, 6, -5, 5, -4, 4, -3, 3, -2, 2, -1, 1, 0, 0, 1, -1, 2, -2, 3, -3, 4, -4, 5, -5, 6, -6], ctildes: [0.2773500981126146, -0.2773500981126146, 0.2773500981126145, -0.2773500981126145, 0.2773500981126146, -0.2773500981126146, 0.2773500981126146, -0.2773500981126146, 0.2773500981126146, -0.2773500981126145, 0.2773500981126145, -0.2773500981126146, 0.2773500981126146]}
    - {mu0: 1, rank: 2, ndensity: 1, num_ms_combs: 13, mus: [0, 0], ns: [4, 4], ls: [6, 6], ms_combs: [-6, 6, -5, 5, -4, 4, -3, 3, -2, 2, -1, 1, 0, 0, 1, -1, 2, -2, 3, -3, 4, -4, 5, -5, 6, -6], ctildes: [0.2773500981126146, -0.2773500981126146, 0.2773500981126145, -0.2773500981126145, 0.2773500981126146, -0.2773500981126146, 0.2773500981126146, -0.2773500981126146, 0.2773500981126146, -0.2773500981126145, 0.2773500981126145, -0.2773500981126146, 0.2773500981126146]}
    - {mu0: 1, rank: 2, ndensity: 1, num_ms_combs: 13, mus: [0, 0], ns: [4, 5], ls: [6, 6], ms_combs: [-6, 6, -5, 5, -4, 4, -3, 3, -2, 2, -1, 1, 0, 0, 1, -1, 2, -2, 3, -3, 4, -4, 5, -5, 6, -6], ctildes: [0.2773500981126146, -0.2773500981126146, 0.2773500981126145, -0.2773500981126145, 0.2773500981126146, -0.2773500981126146, 0.2773500981126146, -0.2773500981126146, 0.2773500981126146, -0.2773500981126145, 0.2773500981126145, -0.2773500981126146, 0.2773500981126146]}
    - {mu0: 1, rank: 2, ndensity: 1, num_ms_combs: 13, mus: [0, 0], ns: [4, 6], ls: [6, 6], ms_combs: [-6, 6, -5, 5, -4, 4, -3, 3, -2, 2, -1, 1, 0, 0, 1, -1, 2, -2, 3, -3, 4, -4, 5, -5, 6, -6], ctildes: [0.2773500981126146, -0.2773500981126146, 0.2773500981126145, -0.2773500981126145, 0.2773500981126146, -0.2773500981126146, 0.2773500981126146, -0.2773500981126146, 0.2773500981126146, -0.2773500981126145, 0.2773500981126145, -0.2773500981126146, 0.2773500981126146]}
    - {mu0: 1, rank: 2, ndensity: 1, num_ms_combs: 13, mus: [0, 0], ns: [5, 5], ls: [6, 6], ms_combs: [-6, 6, -5, 5, -4, 4, -3, 3, -2, 2, -1, 1, 0, 0, 1, -1, 2, -2, 3, -3, 4, -4, 5, -5, 6, -6], ctildes: [0.2773500981126146, -0.2773500981126146, 0.2773500981126145, -0.2773500981126145, 0.2773500981126146, -0.2773500981126146, 0.2773500981126146, -0.2773500981126146, 0.2773500981126146, -0.2773500981126145, 0.2773500981126145, -0.2773500981126146, 0.2773500981126146]}
    - {mu0: 1, rank: 2, ndensity: 1, num_ms_combs: 13, mus: [0, 0], ns: [5, 6], ls: [6, 6], ms_combs: [-6, 6, -5, 5, -4, 4, -3, 3, -2, 2, -1, 1, 0, 0, 1, -1, 2, -2, 3, -3, 4, -4, 5, -5, 6, -6], ctildes: [0.2773500981126146, -0.2773500981126146, 0.2773500981126145, -0.2773500981126145, 0.2773500981126146, -0.2773500981126146, 0.2773500981126146, -0.2773500981126146, 0.2773500981126146, -0.2773500981126145, 0.2773500981126145, -0.2773500981126146, 0.2773500981126146]}
    - {mu0: 1, rank: 2, ndensity: 1, num_ms_combs: 13, mus: [0, 0], ns: [6, 6], ls: [6, 6], ms_combs: [-6, 6, -5, 5, -4, 4, -3, 3, -2, 2, -1, 1, 0, 0, 1, -1, 2, -2, 3, -3, 4, -4, 5, -5, 6, -6], ctildes: [0.2773500981126146, -0.2773500981126146, 0.2773500981126145, -0.2773500981126145, 0.2773500981126146, -0.2773500981126146, 0.2773500981126146, -0.2773500981126146, 0.2773500981126146, -0.2773500981126145, 0.2773500981126145, -0.2773500981126146, 0.2773500981126146]}
    - {mu0: 1, rank: 3, ndensity: 1, num_ms_combs: 1, mus: [0, 0, 0], ns: [1, 1, 1], ls: [0, 0, 0], ms_combs: [0, 0, 0], ctildes: [1.0]}
    - {mu0: 1, rank: 3, ndensity: 1, num_ms_combs: 1, mus: [0, 0, 0], ns: [1, 1, 2], ls: [0, 0, 0], ms_combs: [0, 0, 0], ctildes: [1.0]}
    - {mu0: 1, rank: 3, ndensity: 1, num_ms_combs: 1, mus: [0, 0, 0], ns: [1, 2, 2], ls: [0, 0, 0], ms_combs: [0, 0, 0], ctildes: [1.0]}
    - {mu0: 1, rank: 3, ndensity: 1, num_ms_combs: 1, mus: [0, 0, 0], ns: [2, 2, 2], ls: [0, 0, 0], ms_combs: [0, 0, 0], ctildes: [1.0]}
    - {mu0: 1, rank: 3, ndensity: 1, num_ms_combs: 3, mus: [0, 0, 0], ns: [1, 1, 1], ls: [0, 1, 1], ms_combs: [0, -1, 1, 0, 0, 0, 0, 1, -1], ctildes: [0.5773502691896257, -0.5773502691896257, 0.5773502691896257]}
    - {mu0: 1, rank: 3, ndensity: 1, num_ms_combs: 3, mus: [0, 0, 0], ns: [1, 1, 2], ls: [0, 1, 1], ms_combs: [0, -1, 1, 0, 0, 0, 0, 1, -1], ctildes: [0.5773502691896257, -0.5773502691896257, 0.5773502691896257]}
    - {mu0: 1, rank: 3, ndensity: 1, num_ms_combs: 3, mus: [0, 0, 0], ns: [1, 2, 2], ls: [0, 1, 1], ms_combs: [0, -1, 1, 0, 0, 0, 0, 1, -1], ctildes: [0.5773502691896257, -0.5773502691896257, 0.5773502691896257]}
    - {mu0: 1, rank: 3, ndensity: 1, num_ms_combs: 3, mus: [0, 0, 0], ns: [2, 1, 1], ls: [0, 1, 1], ms_combs: [0, -1, 1, 0, 0, 0, 0, 1, -1], ctildes: [0.5773502691896257, -0.5773502691896257, 0.5773502691896257]}
    - {mu0: 1, rank: 3, ndensity: 1, num_ms_combs: 3, mus: [0, 0, 0], ns: [2, 1, 2], ls: [0, 1, 1], ms_combs: [0, -1, 1, 0, 0, 0, 0, 1, -1], ctildes: [0.5773502691896257, -0.5773502691896257, 0.5773502691896257]}
    - {mu0: 1, rank: 3, ndensity: 1, num_ms_combs: 3, mus: [0, 0, 0], ns: [2, 2, 2], ls: [0, 1, 1], ms_combs: [0, -1, 1, 0, 0, 0, 0, 1, -1], ctildes: [0.5773502691896257, -0.5773502691896257, 0.5773502691896257]}
    - {mu0: 1, rank: 3, ndensity: 1, num_ms_combs: 5, mus: [0, 0, 0], ns: [1, 1, 1], ls: [0, 2, 2], ms_combs: [0, -2, 2, 0, -1, 1, 0, 0, 0, 0, 1, -1, 0, 2, -2], ctildes: [0.4472135954999579, -0.4472135954999579, 0.447213595499958, -0.4472135954999579, 0.4472135954999579]}
    - {mu0: 1, rank: 3, ndensity: 1, num_ms_combs: 5, mus: [0, 0, 0], ns: [1, 1, 2], ls: [0, 2, 2], ms_combs: [0, -2, 2, 0, -1, 1, 0, 0, 0, 0, 1, -1, 0, 2, -2], ctildes: [0.4472135954999579, -0.4472135954999579, 0.447213595499958, -0.4472135954999579, 0.4472135954999579]}
    - {mu0: 1, rank: 3, ndensity: 1, num_ms_combs: 5, mus: [0, 0, 0], ns: [1, 2, 2], ls: [0, 2, 2], ms_combs: [0, -2, 2, 0, -1, 1, 0, 0, 0, 0, 1, -1, 0, 2, -2], ctildes: [0.4472135954999579, -0.4472135954999579, 0.447213595499958, -0.4472135954999579, 0.4472135954999579]}
    - {mu0: 1, rank: 3, ndensity: 1, num_ms_combs: 5, mus: [0, 0, 0], ns: [2, 1, 1], ls: [0, 2, 2], ms_combs: [0, -2, 2, 0, -1, 1, 0, 0, 0, 0, 1, -1, 0, 2, -2], ctildes: [0.4472135954999579, -0.4472135954999579, 0.447213595499958, -0.4472135954999579, 0.4472135954999579]}
    - {mu0: 1, rank: 3, ndensity: 1, num_ms_combs: 5, mus: [0, 0, 0], ns: [2, 1, 2], ls: [0, 2, 2], ms_combs: [0, -2, 2, 0, -1, 1, 0, 0, 0, 0, 1, -1, 0, 2, -2], ctildes: [0.4472135954999579, -0.4472135954999579, 0.447213595499958, -0.4472135954999579, 0.4472135954999579]}
    - {mu0: 1, rank: 3, ndensity: 1, num_ms_combs: 5, mus: [0, 0, 0], ns: [2, 2, 2], ls: [0, 2, 2], ms_combs: [0, -2, 2, 0, -1, 1, 0, 0, 0, 0, 1, -1, 0, 2, -2], ctildes: [0.4472135954999579, -0.4472135954999579, 0.447213595499958, -0.4472135954999579, 0.4472135954999579]}
    - {mu0: 1, rank: 3, ndensity: 1, num_ms_combs: 9, mus: [0, 0, 0], ns: [1, 1, 1], ls: [1, 1, 2], ms_combs: [-1, -1, 2, -1, 0, 1, -1, 1, 0, 0, -1, 1, 0, 0, 0, 0, 1, -1, 1, -1, 0, 1, 0, -1, 1, 1, -2], ctildes: [0.4472135954999579, -0.31622776601683794, 0.18257418583505539, -0.31622776601683794, 0.36514837167011077, -0.31622776601683794, 0.18257418583505539, -0.31622776601683794, 0.4472135954999579]}
    - {mu0: 1, rank: 3, ndensity: 1, num_ms_combs: 9, mus: [0, 0, 0], ns: [1, 1, 2], ls: [1, 1, 2], ms_combs: [-1, -1, 2, -1, 0, 1, -1, 1, 0, 0, -1, 1, 0, 0, 0, 0, 1, -1, 1, -1, 0, 1, 0, -1, 1, 1, -2], ctildes: [0.4472135954999579, -0.31622776601683794, 0.18257418583505539, -0.31622776601683794, 0.36514837167011077, -0.31622776601683794, 0.18257418583505539, -0.31622776601683794, 0.4472135954999579]}
    - {mu0: 1, rank: 3, ndensity: 1, num_ms_combs: 9, mus: [0, 0, 0], ns: [1, 2, 1], ls: [1, 1, 2], ms_combs: [-1, -1, 2, -1, 0, 1, -1, 1, 0, 0, -1, 1, 0, 0, 0, 0, 1, -1, 1, -1, 0, 1, 0, -1, 1, 1, -2], ctildes: [0.4472135954999579, -0.31622776601683794, 0.18257418583505539, -0.31622776601683794, 0.36514837167011077, -0.31622776601683794, 0.18257418583505539, -0.31622776601683794, 0.4472135954999579]}
    - {mu0: 1, rank: 3, ndensity: 1, num_ms_combs: 9, mus: [0, 0, 0], ns: [1, 2, 2], ls: [1, 1, 2], ms_combs: [-1, -1, 2, -1, 0, 1, -1, 1, 0, 0, -1, 1, 0, 0, 0, 0, 1, -1, 1, -1, 0, 1, 0, -1, 1, 1, -2], ctildes: [0.4472135954999579, -0.31622776601683794, 0.18257418583505539, -0.31622776601683794, 0.36514837167011077, -0.31622776601683794, 0.18257418583505539, -0.31622776601683794, 0.4472135954999579]}
    - {mu0: 1, rank: 3, ndensity: 1, num_ms_combs: 9, mus: [0, 0, 0], ns: [2, 2, 1], ls: [1, 1, 2], ms_combs: [-1, -1, 2, -1, 0, 1, -1, 1, 0, 0, -1, 1, 0, 0, 0, 0, 1, -1, 1, -1, 0, 1, 0, -1, 1, 1, -2], ctildes: [0.4472135954999579, -0.31622776601683794, 0.18257418583505539, -0.31622776601683794, 0.36514837167011077, -0.31622776601683794, 0.18257418583505539, -0.31622776601683794, 0.4472135954999579]}
    - {mu0: 1, rank: 3, ndensity: 1, num_ms_combs: 9, mus: [0, 0, 0], ns: [2, 2, 2], ls: [1, 1, 2], ms_combs: [-1, -1, 2, -1, 0, 1, -1, 1, 0, 0, -1, 1, 0, 0, 0, 0, 1, -1, 1, -1, 0, 1, 0, -1, 1, 1, -2], ctildes: [0.4472135954999579, -0.31622776601683794, 0.18257418583505539, -0.31622776601683794, 0.36514837167011077, -0.31622776601683794, 0.18257418583505539, -0.31622776601683794, 0.4472135954999579]}
    - {mu0: 1, rank: 3, ndensity: 1, num_ms_combs: 19, mus: [0, 0, 0], ns: [1, 1, 1], ls: [2, 2, 2], ms_combs: [-2, 0, 2, -2, 1, 1, -2, 2, 0, -1, -1, 2, -1, 0, 1, -1, 1, 0, -1, 2, -1, 0, -2, 2, 0, -1, 1, 0, 0, 0, 0, 1, -1, 0, 2, -2, 1, -2, 1, 1, -1, 0, 1, 0, -1, 1, 1, -2, 2, -2, 0, 2, -1, -1, 2, 0, -2], ctildes: [0.23904572186687872, -0.2927700218845599, 0.23904572186687875, -0.2927700218845599, 0.11952286093343936, 0.11952286093343938, -0.2927700218845599, 0.23904572186687872, 0.11952286093343936, -0.23904572186687875, 0.11952286093343936, 0.23904572186687872, -0.2927700218845599, 0.11952286093343938, 0.11952286093343936, -0.2927700218845599, 0.23904572186687875, -0.2927700218845599, 0.23904572186687872]}
    - {mu0: 1, rank: 3, ndensity: 1, num_ms_combs: 19, mus: [0, 0, 0], ns: [1, 1, 2], ls: [2, 2, 2], ms_combs: [-2, 0, 2, -2, 1, 1, -2, 2, 0, -1, -1, 2, -1, 0, 1, -1, 1, 0, -1, 2, -1, 0, -2, 2, 0, -1, 1, 0, 0, 0, 0, 1, -1, 0, 2, -2, 1, -2, 1, 1, -1, 0, 1, 0, -1, 1, 1, -2, 2, -2, 0, 2, -1, -1, 2, 0, -2], ctildes: [0.23904572186687872, -0.2927700218845599, 0.23904572186687875, -0.2927700218845599, 0.11952286093343936, 0.11952286093343938, -0.2927700218845599, 0.23904572186687872, 0.11952286093343936, -0.23904572186687875, 0.11952286093343936, 0.23904572186687872, -0.2927700218845599, 0.11952286093343938, 0.11952286093343936, -0.2927700218845599, 0.23904572186687875, -0.2927700218845599, 0.23904572186687872]}
    - {mu0: 1, rank: 3, ndensity: 1, num_ms_combs: 19, mus: [0, 0, 0], ns: [1, 2, 2], ls: [2, 2, 2], ms_combs: [-2, 0, 2, -2, 1, 1, -2, 2, 0, -1, -1, 2, -1, 0, 1, -1, 1, 0, -1, 2, -1, 0, -2, 2, 0, -1, 1, 0, 0, 0, 0, 1, -1, 0, 2, -2, 1, -2, 1, 1, -1, 0, 1, 0, -1, 1, 1, -2, 2, -2, 0, 2, -1, -1, 2, 0, -2], ctildes: [0.23904572186687872, -0.2927700218845599, 0.23904572186687875, -0.2927700218845599, 0.11952286093343936, 0.11952286093343938, -0.2927700218845599, 0.23904572186687872, 0.11952286093343936, -0.23904572186687875, 0.11952286093343936, 0.23904572186687872, -0.2927700218845599, 0.11952286093343938, 0.11952286093343936, -0.2927700218845599, 0.23904572186687875, -0.2927700218845599, 0.23904572186687872]}
    - {mu0: 1, rank: 3, ndensity: 1, num_ms_combs: 19, mus: [0, 0, 0], ns: [2, 2, 2], ls: [2, 2, 2], ms_combs: [-2, 0, 2, -2, 1, 1, -2, 2, 0, -1, -1, 2, -1, 0, 1, -1, 1, 0, -1, 2, -1, 0, -2, 2, 0, -1, 1, 0, 0, 0, 0, 1, -1, 0, 2, -2, 1, -2, 1, 1, -1, 0, 1, 0, -1, 1, 1, -2, 2, -2, 0, 2, -1, -1, 2, 0, -2], ctildes: [0.23904572186687872, -0.2927700218845599, 0.23904572186687875, -0.2927700218845599, 0.11952286093343936, 0.11952286093343938, -0.2927700218845599, 0.23904572186687872, 0.11952286093343936, -0.23904572186687875, 0.11952286093343936, 0.23904572186687872, -0.2927700218845599, 0.11952286093343938, 0.11952286093343936, -0.2927700218845599, 0.23904572186687875, -0.2927700218845599, 0.23904572186687872]}
    - {mu0: 1, rank: 4, ndensity: 1, num_ms_combs: 1, mus: [0, 0, 0, 0], ns: [1, 1, 1, 1], ls: [0, 0, 0, 0], ms_combs: [0, 0, 0, 0], ctildes: [1.0]}
    - {mu0: 1, rank: 4, ndensity: 1, num_ms_combs: 3, mus: [0, 0, 0, 0], ns: [1, 1, 1, 1], ls: [0, 0, 1, 1], ms_combs: [0, 0, -1, 1, 0, 0, 0, 0, 0, 0, 1, -1], ctildes: [0.5773502691896257, -0.5773502691896257, 0.5773502691896257]}
    - {mu0: 1, rank: 4, ndensity: 1, num_ms_combs: 19, mus: [0, 0, 0, 0], ns: [1, 1, 1, 1], ls: [1, 1, 1, 1], ms_combs: [-1, -1, 1, 1, -1, 0, 0, 1, -1, 0, 1, 0, -1, 1, -1, 1, -1, 1, 0, 0, -1, 1, 1, -1, 0, -1, 0, 1, 0, -1, 1, 0, 0, 0, -1, 1, 0, 0, 0, 0, 0, 0, 1, -1, 0, 1, -1, 0, 0, 1, 0, -1, 1, -1, -1, 1, 1, -1, 0, 0, 1, -1, 1, -1, 1, 0, -1, 0, 1, 0, 0, -1, 1, 1, -1, -1], ctildes: [0.0, 0.0, 0.0, 0.3333333333333333, -0.3333333333333333, 0.3333333333333333, 0.0, 0.0, -0.3333333333333333, 0.3333333333333333, -0.3333333333333333, 0.0, 0.0, 0.3333333333333333, -0.3333333333333333, 0.3333333333333333, 0.0, 0.0, 0.0]}
